,0,1,2,3
0,-0.002202864084722885,-0.018007295898817936,0.01079078967677947,-0.0208378845530361
1,-0.009459321539202196,-0.014868770154806546,0.005789559204863964,0.0024001134515298336
2,-0.011726568559206715,-0.00443519290749995,0.0069973912523257804,0.0065660084398945755
3,0.003090379297513265,0.003055133473411127,0.01279869887755291,0.003671679879244422
4,-0.016766520288023973,-0.0077718251099135474,-0.014839244913804025,0.03098894481081142
5,-0.009712158971420951,-0.018012693273174233,0.023309493343813336,0.001031961273176547
6,0.005277053369171758,0.008914943096847792,-0.004411714833723588,0.04085616301994092
7,-0.013036316399584615,-0.02706236026447562,0.0177016222469888,0.012860678200521862
8,-0.002067964128085965,-0.007887717514661765,0.013510509599015582,0.008469004939589015
9,-0.026127373185008313,-0.030842007737192215,-0.014115483728903736,0.016345529949431812
10,0.007381143450493026,-0.026788664904197897,0.0028432571510788518,0.010306628794816237
11,-0.020280457713446807,0.007584288030579901,-0.01260607747825727,0.016259343328836426
12,0.006645528381129695,0.014729107690421196,0.014004656163977992,0.015357797564771925
13,0.0006685551565470367,0.0028325376892951656,0.006866301145839973,0.018232159278257564
14,-0.008905859803391642,0.013636130651653715,-0.00011753477033683728,-0.00306750678586477
15,-0.006641426292633863,0.011339582116531067,0.000751782014889388,0.007867813912888634
16,-0.016116127127562507,0.01528844831997555,0.006035637127218519,-0.009938137749156277
17,-0.01859930052705893,0.012258140371201773,-0.02426914780391403,-0.0013270385839887476
18,0.019029981587139373,0.006093879303715854,0.01093268574471725,-0.006403671560084725
19,0.00617216718282629,0.00807361794702027,0.00960753105618421,0.01695615999901583
20,0.018040424029306577,-0.005609074835688585,-0.0013612446242376498,-0.01936227183797534
21,0.001450555252592622,0.00830776957843402,-0.011774874698597905,-0.004360559147474849
22,-0.0022495208671256452,0.0010741931073585554,-0.0007954915682277066,-0.012702283901630097
23,-0.007544488696961533,-0.01281846312734132,-0.015499747103762562,-0.001647356820274187
24,0.015753574523744998,-0.014829291244194824,0.005535994523024152,-0.014358613504340085
25,-0.014098938891576292,0.00030937021118420066,-0.014221824910261683,-0.008564459267756692
26,-0.010069786477603688,-0.013295495979056767,0.00690884558533033,0.005956220220129466
27,0.02046822066762339,-0.005252368133134887,0.013266390222238007,-0.0029917565431955857
28,0.013763931541708723,0.014617026904606718,-0.009583534318960875,-0.01169225838038055
29,0.015350348996801806,-0.00774364376495488,0.009631058693389778,-0.023552853353108125
30,0.005122253252226217,-0.01611043058359044,-0.015433021500608947,-0.02030922770573818
31,0.02192896951449782,-0.002158396917180858,-0.020168068258575703,-0.013911047141261167
32,-0.0008821890195256956,-0.030518719888879647,0.00838812641552475,-0.00386709636124973
33,-0.020863741907789717,-0.020109787101167297,0.013292143164425342,0.0041386876914741005
34,0.015803790542380076,-0.008081308537950456,0.022409206802528038,0.004062941091644952
35,-0.004536662825707831,-0.019798930306474213,0.015489283572457957,0.0020123430114453132
36,0.03347422477383622,-0.004127416483812116,-0.02053170579322284,-0.022944101295036493
37,-0.004845903129451598,0.0029359871476999475,0.012450558529559303,0.009507272880877876
38,-0.019611597762418737,-0.024489363805595445,-0.0031315169674627566,0.019342678243227236
39,0.009213653422588439,-0.010598406226618777,-0.010793109860629747,-0.022260032747959083
40,0.0012629544295906163,-0.015048586820290073,-0.010301610690758014,-0.012747840149639271
41,0.0030975397901196584,-0.0032994288435679933,0.00191409728665809,-0.0009743810650366415
42,-0.0004967970448992397,-0.010337909353718654,0.0057001504049941695,-0.01064974760127042
43,0.022575574452808885,-0.01033310850326365,-0.003981415381569224,0.005190016526263854
44,0.0023917552411822285,0.004321559483389392,0.009437079586172804,-0.003055160679957906
45,0.01280525008411706,0.0035926484713309725,0.0020469405389392605,-0.005291823688794629
46,0.026613236456709228,-0.026678563199360173,0.017622709941701675,0.0020122798568054773
47,0.014041869872464611,0.005229180566162168,0.0017324295481027478,0.002445575125850029
48,0.024552762735781646,-0.01732334701417033,-0.006209648951560403,-0.017145040428421313
49,0.02051612487219771,0.004374932091198076,-0.012218366288860884,-0.025685323945832526
50,0.008786308346282539,-0.010471435781325929,-0.0034369993864402496,-0.017951253629267843
51,0.025231016597288627,-0.0015686266504144173,0.003430997341702146,0.012826981172843501
52,-0.001394830098329507,0.010284865436741534,0.0009126724646839848,-0.014118164942413984
53,0.0032054632140813564,-0.007353415803018603,0.010380700366344694,-0.02053830167958088
54,0.016656215319671624,-0.006868383500069071,-0.010003677714393337,0.012093602731915714
55,0.02216288641412589,-0.0036303917242460587,0.0015882510911829023,-0.012718646777186546
56,0.005141444733838128,-0.009654556181955902,-0.0031679554643572524,-0.00437582651889986
57,0.030203772703701223,-0.030095571315445966,-0.005016221796440633,0.004857827461941921
58,-0.0003334398809327707,0.0033339450369622233,-0.02122788093657934,0.013102506101180222
59,0.0025254968372134725,-0.011351411192550103,-0.0018959305700167433,-0.0027529356158472735
60,0.0016384160765169362,0.018521500255796672,0.016647844497421228,-0.0033480033977045204
61,0.012521469081329601,0.011955520834232125,-0.009358767029194625,0.0034333456053129464
62,0.020664823570164827,-0.01632009751864586,-0.006536718791457317,-0.004881204387350715
63,0.014356026261482609,-0.01757945378814347,0.0043705105624104405,-0.01928809789111992
64,0.0013195411678651647,-0.01267624046647608,-0.0027997129621013506,0.0036936519738749378
65,0.008800847816708321,-0.01062780474954073,-0.0032165981684955437,-0.006036837671339078
66,0.00884760456410811,0.004309867737587834,-0.008430901460766126,-0.025367131919791158
67,-0.003566353879371677,0.005049418451136664,0.003492376543790733,-0.0038523620813901106
68,-0.013783054264977126,-0.007108586793737333,-0.013688164597880552,0.013731261686526212
69,-0.00996107378578042,-0.00489148593198001,-0.01976216603259177,0.028383384176066468
70,-0.0026141617611225385,-0.009088852096923918,-0.012692786605145204,0.014190612536989108
71,-0.007104522742969395,-0.028082346889371432,0.006817183850857639,0.007303683947490463
72,-0.012129936678738157,-0.01970003116123515,-0.011729109517142794,0.02594760766575957
73,-0.019426637930007113,-0.006988750150353969,-0.014114930404291024,0.014118397230215629
74,0.019396135442723634,-0.007741597302899642,-0.008737785675727923,-0.013287783127710508
75,0.005222623278500154,-0.01542908276233507,0.0010194018363308365,-0.023418636714947573
76,-0.012939972819178337,-0.028417438247538455,-0.014510368022024862,0.023840371604120482
77,0.00042804244685537405,-0.03512820731914987,-0.01932597425300365,0.0076812817827507695
78,0.013454316164002783,0.0119307154045222,0.0010991758302408238,0.009607071285478079
79,0.009644609767818436,-0.014734577525898775,0.0032030253274493727,-0.004116396336312074
80,-0.001100307275125131,0.00832772742910596,-0.0066757872481179445,0.0013154877176706748
81,-0.011854896777397985,-0.015449142662730763,0.024668217988731197,0.0029691477877671745
82,-0.002582664943147467,-0.00461867831561968,0.016399569798693694,-0.0067554813443609675
83,0.009522776251829958,-0.013896804587660993,0.014131289069433907,-0.0017819935816465007
84,-0.011726991369981293,-0.008333227847938421,0.006778627252064534,-0.004776390169918117
85,0.0069311151244054545,0.009668331540503592,0.009600147210498589,-0.0011923167063033558
86,0.010422852477672141,-0.01478867669800856,0.024816299323493753,-0.003153964358159693
87,0.0011648244232455231,0.011752525718250771,0.012661104150905204,-0.004555057649748798
88,-0.009346301631644472,0.010392953088284454,0.016893631547231835,-0.026313021350334177
89,-0.020210712627199912,0.0029841492176495483,0.022166247569408215,-0.01687189383053919
90,-0.0032199709710239856,-0.02486081850595828,0.025539831970050504,-0.020576904556230975
91,0.0017886036042643041,-0.011624950184899355,0.010190269972503802,0.003394837499790461
92,-0.005038215620082872,-0.00978801158265725,0.003581255901488221,0.007039108623994527
93,0.014418714890959824,0.004733410819275648,0.00020088901970718783,-0.002066646762680521
94,-0.004489691569692327,-0.024551252515875616,0.00918370074204862,-0.027806452383928586
95,0.002608890376351314,0.005971516488582345,0.01762180636342248,-0.02065753308740333
96,0.004253921577728619,-0.026558241363891136,0.004778716797906739,-0.00771830620677433
97,-0.02499472814362821,-0.0034603928347532184,0.008312703249592646,-0.007649462261695708
98,-0.0038576341003809422,-0.008449180609553884,0.0193128808637713,0.002672187315689598
99,-0.0040230399754313355,-0.012924890331431417,-0.007903768604303123,0.00999970271514058
100,0.0014470245811964288,-0.01484682239867281,0.024953630766521854,-0.01329226559814392
101,-0.0007183950081533096,0.008757087125201584,0.014996669205548551,-0.001569693245393459
102,0.014942784299081758,-0.00915962647193025,-0.0005094387058519991,-0.010725272248266459
103,-0.004095501564128398,0.010913864754064192,-0.026690579599123337,0.01054956785410424
104,0.011342442544017279,0.002408248131171721,0.008689502253149819,0.006644777048215168
105,-0.007542065863439672,-0.02326507003636479,-0.0014459363639540905,-0.0005042803469119811
106,-0.005015730737353311,0.009310078803657529,0.02208354507800836,0.007535903343872734
107,0.015828667114573147,-0.010673450811788072,0.010463338807661586,0.014032234089255398
108,-0.0072095285429887085,0.008860893240743585,-0.004438578923322022,0.005885614728870398
109,-0.006746495953376675,-0.0024495584691571533,-0.0033990307490556313,0.006197836672645812
110,0.00017325611437632294,0.005705057667926842,0.008605075072220063,-0.012191596130943923
111,0.0025793516413257066,0.004115421929492064,0.001831872617930356,-0.00657393040244552
112,-0.013815240650853525,0.003194518615396387,0.003288063960789265,-0.015778144723380665
113,-0.0035587919540067446,0.0076165916184218006,0.012593418765889005,-0.0018026973429242164
114,0.011837485173965967,0.013339369716752794,-0.0051851865982341485,-0.007648346560473362
115,-0.006310516175339114,-0.010820310502433773,0.008272781786362598,0.0024587203033481454
116,-0.01420517900410489,-0.009628044658901172,-0.0014981812311275597,0.0009108892850767874
117,-0.013504376111880717,-0.006504777925561344,0.005760204689450709,0.02214505726192845
118,0.007596750541001536,0.005061532289194713,-0.0010267657932782987,-0.001360633591558351
119,0.0007534129765825462,-0.010272752830062648,-0.004692089649488239,-0.008503490347064236
120,-0.015337173284831541,0.0069317351921598155,-0.0047897887005094765,0.008379697966601806
121,0.019010264448277244,0.025399108896355063,-0.00139029076892249,0.012801649477658881
122,0.0022630605175188246,-0.014458230318396022,0.002753585588619712,-0.006132124231722871
123,-0.006357358946520811,-0.017628025584055407,-0.0029850501219549053,0.022236042120287187
124,-0.003892014471366096,-0.0026741537798199693,0.0013501179951140403,-0.005510735478716529
125,-0.010019476535698976,0.012672177588038997,0.010919596651267478,-0.007005998225525444
126,0.0002449319989158023,0.015475289293161134,-0.013029654621724736,0.01496566946076655
127,-0.009936761577930968,1.2996475993160515e-06,0.0003010091462114768,-0.016994997605973613
128,-0.017484443971353916,0.008406690059849982,0.0031901897317536884,0.01838275079199865
129,0.003930900244143294,0.005756301359056923,-0.006881118495037021,-0.021106804883635005
130,-0.004216644558536352,-0.0030301817948895802,0.010251183027984478,0.002404168428096805
131,-0.01798351091096214,-0.005777747578408453,0.01101401633772779,-0.014448914564625957
132,-0.01151032908873869,0.004484669997104113,0.012732569549386178,0.00572622221090997
133,0.011279868197966772,0.010308843061922866,-0.015899975101529417,-0.014859365745356711
134,-0.012025685701382398,-0.006155060863177361,0.013879749849682821,-0.022531866386663376
135,-0.0009640896112315949,0.01207422242260067,0.025222483486189072,-0.012725515396774155
136,-0.004558605194140189,-0.00611710266345032,0.012546202957466295,0.006205543569009209
137,-0.008828319696194978,-0.014507229707584283,0.018366738244432,0.012143713046261082
138,-0.026914578870875776,0.01855774223330486,0.023984245403809883,-0.005082887515872464
139,0.016551586353187556,-0.0044576896955288055,0.00614688308900368,0.01077497723135597
140,-0.0038790649019690582,-0.0029328273964166706,0.017773403254089083,0.004950573120345571
141,6.749913331435436e-05,-0.023515575187319965,0.009294327610900037,0.013253982743051156
142,0.02840175052346119,0.015385686214488312,0.002443908928900811,0.00015110332484312428
143,-0.0011021711659804476,-0.02041097975582371,0.00016205569691829706,-0.011821996804750459
144,0.010890304804594707,-0.022009510022720773,0.030118686875918125,-0.009285941654873748
145,-0.008329440476114716,-0.002407058699848043,0.003933808274035239,0.01960085264054672
146,-0.02802657005207164,-0.013244899286251114,0.03733509897317404,-0.0007944451188804678
147,-0.0112492065358659,-0.019777408864736713,0.018318394758284954,0.007179316013088215
148,-0.007154750550157376,-0.0051644902855531956,0.023145181453382596,0.0032966654183844203
149,0.02775894929301752,-0.014291093957833869,0.005491325960654432,-0.005664597750894466
150,0.014209843396646634,-0.022024678634347806,-0.004468504429955483,-0.029816789537722682
151,0.010140352445230658,0.007337236250213379,0.002821179577363221,-0.0020531995145578728
152,0.009654082979075962,-0.012580773708612686,0.01921716748009568,0.022533581074707876
153,0.0006876864145706729,-0.010873242014680928,0.012252133640324687,0.0052119042231651355
154,0.023589126306731795,-0.01126310264920281,0.023928437736445613,-0.01151339848033013
155,0.013996286129880674,0.0059139020097130094,0.01055990755764981,-0.007959070492037378
156,0.014354768089570048,0.024641838267442283,0.002291286196281189,0.005579214788354871
157,0.014336678864997494,-0.022558202089128697,-0.013783959418058763,-0.008151101164285095
158,0.01240539978577291,-0.01402509295973289,-0.019074571241021146,-0.022604211045569096
159,-0.0015178643127383164,-0.02231188531114199,0.0002163343460477702,-0.009529780608779959
160,-0.004618265733174687,0.016742929673799225,-0.006726132180541263,0.0028090728124655524
161,0.014602382139572235,0.0275214759367285,-0.01416355021559543,0.0011559987849652693
162,-0.0009238583066939444,-0.015443779755163273,0.008295021550187118,-0.016433593785276313
163,-0.016339405751925162,-0.011979307717296373,-0.0034717422021616094,-0.011192621067630516
164,0.02307192511358906,-0.021888119478290016,0.011306109454777849,0.0009390595987166523
165,0.018716419916405196,-0.004444562561826618,0.006952187747022485,-0.018264126819001598
166,0.015491896879239105,-0.011946307474728676,0.0018095506879029055,-0.022430055587871044
167,-0.025697527040874538,-0.015221326070098545,0.016886208360207332,-0.015297271095284932
168,-0.006671434463131614,-0.009261590397970483,0.007240291291831039,0.005812689360820118
169,0.00849199478900766,-0.0027940411266041488,-0.0011229594724864586,-0.00936250758900387
170,0.00011562149313541976,0.017034339319912,-0.0025909976439165883,-0.013415628918399649
171,0.024315392680064996,-0.004255303925254565,0.004896083599006104,-0.0041813336929107684
172,-0.00875973177618949,0.00014538374791598727,1.3766948142207638e-05,-0.0032540045909380463
173,-0.02486600435101226,-0.003672825074093416,-0.0012138970351197043,-0.01586853242694227
174,-0.0033806191846397424,0.006227048553838707,0.016478796125594365,-0.009524758808689438
175,0.009199699958126114,-0.007871322315630059,0.019443983366518185,-0.003600976783070255
176,0.014665308311753184,-0.0027038052752774264,0.002161964122025302,-0.009677320212424196
177,0.002695091692738496,-0.013726359209578475,0.00899183985928012,-0.019149316390392777
178,0.0166633204067715,-0.00833459237790671,0.0005382423731590548,0.004331932874889534
179,0.0028575712815967283,-0.010851962343306586,-0.022566486918440647,0.016212488443848726
180,0.007824727584598415,0.00024527911916802435,-0.01201530938176504,0.0027326252573241696
181,-0.006162063400410088,-0.006705340518316598,-0.008883720023259021,0.009514773028549337
182,-0.02206794017772614,0.014545732109174966,-0.018440073569335854,0.010944276435929032
183,-0.02024883746107115,-0.023530318700386105,-0.0025678376010947806,0.0036927624769989786
184,-0.0009030367871492676,-0.006270656153629907,-0.01504086572171092,0.01292803986151401
185,0.004137561198454345,-0.009171086019031192,-0.01139522455254829,0.01813792350140628
186,0.028973850946846062,0.009313695203191369,-0.0044054975664422616,-0.007518976535599401
187,-0.001705531208535333,-0.010544338965395856,-0.003937079037359719,-0.0009000430297886264
188,0.030372944562069886,-0.010561210866980399,0.005567415022573838,0.0068583641241996935
189,0.035391343658661784,0.006424522148781352,-0.004949049792871132,-0.004690021605708737
190,0.0035682164053036252,-0.005036120805819649,-0.003685629539912309,-0.005131007984935623
191,0.0036162619478338686,-0.009886223178648958,0.006778785034888837,0.003231463887731559
192,-0.011471247326964489,0.01736597141572446,-0.0024477790730484,-0.005511658027026353
193,0.010673089944119363,0.012614750706941348,-0.011312379126172951,-0.005978609672347636
194,-0.0037131738927647824,-0.0038135336690213384,-0.0017888200006280464,-0.0014665272880675664
195,-0.00448965991644468,-0.002006842635841545,0.00879563149199639,-0.006668024669023381
196,0.00851897506758326,-0.01801370374555485,-0.002705350122904593,-0.001684520839329861
197,0.019653376282472695,0.020147332619925438,-0.030613646618763233,0.0013272294758027482
198,0.011002939882646407,-0.0029341062026909297,-0.01596451007689567,-0.008707736757445225
199,-0.004497404249939493,0.006227690627374917,0.017012722076698416,-0.007135885865303076
200,-0.013806259768842057,0.0026495080189690577,-0.001623747245897191,-0.01377935889964673
201,-0.012481086714984446,-0.008078520499888905,0.0026373542609466755,-0.002470100666661275
202,0.01583372176769532,-0.010905411150432578,-0.0170175283932544,-0.00564206595331701
203,-0.015287766191577134,-0.0009321014919713916,-0.018874877295453157,-0.0009689055009915905
204,0.011030710039775559,-0.02101220237987548,-0.004819662957579837,0.01196474623135684
205,0.006699489333373904,0.00022555347373043842,-0.017138867740647955,0.012618883431979446
206,0.009064348348246406,0.006796789621531684,-0.008507112946784058,-0.006829481749722275
207,0.0003388751715811277,-0.007677155586299048,0.007824448972570949,0.002733863892048311
208,0.002865566987206035,-0.003977202183239728,0.011569656098476764,-0.003724363156935323
209,0.02646465015086984,-0.018631236218754444,-0.0007597700125018103,-0.011437671349767904
210,-0.0015572475266712909,-0.0011032858089454953,-0.011063255652769515,0.002612486311402957
211,0.004492417587613494,0.009438326559758183,-0.006396617892895241,-0.009204139459399066
212,0.0024593226479295684,-0.005242077508759225,0.02140275315784627,-0.007264840290202441
213,-0.009485913957097377,0.001665263620123192,0.008267933259909268,0.00978523183050188
214,0.0008502301089327585,-0.01374374610116537,0.00017034484162132537,0.013600065482881724
215,-0.021313154014759028,-0.019302406940874043,0.004383175801665731,0.012877020549124773
216,-0.008402968010064411,-0.009289395611360442,0.012224140915921717,0.02566572756409851
217,-0.011145204951802733,0.008436230196851607,-0.008611021620453367,0.016358386835241042
218,-0.008846811316022869,0.003695993102526154,-0.011433154418700844,0.005917238692915481
219,0.015437658357544912,-0.0174978607870508,-0.00010625530410766305,0.020842900052119955
220,-0.018220658979582572,0.009969023687170835,-0.00539867265221594,0.0014533660910554635
221,0.015689542051818973,0.004210412318020949,-0.006982335926002072,0.022285589051026226
222,-0.007978065158533042,-0.011339129248210851,-0.0006757446771262167,-0.0005582409244562272
223,-0.005739841635414647,-0.0013270575000487392,-0.010100809675301716,-0.001161247009371125
224,-0.006359703644016069,0.00015388774925451215,0.014204332869989494,0.02701178039203834
225,-0.015743627609131068,-0.01594517090017408,0.004357910416493401,0.001799669892891227
226,-0.006433028353370896,-0.008512290120383762,-0.014900696338094911,-0.0014383455412058978
227,-0.006302947182639346,0.006893229003770795,-0.015776193730993874,-0.0027357209881229334
228,0.0039981853062925335,0.0022450692200726885,0.009304027888633673,-0.016179804839303497
229,0.006347298620808964,0.0050310787120066746,-0.0021276712041794314,0.002678260711198948
230,-0.017198638870837515,-0.007929818026736708,-0.011246182338622486,0.005137711662883946
231,0.014166317760392618,0.014691069096276758,-0.016089089449998643,0.0005631227991230951
232,-0.007568581720352379,-0.012368769704599372,0.007646549341611871,0.02441174625910968
233,0.012378486322108431,0.01923065989119894,0.011539646816781204,-0.0022541210402220626
234,-0.002600505752052869,-0.003321414839076132,0.007875009575752009,0.01774280754109795
235,0.0013115597516358516,0.0048221649127416985,0.007512795660459782,-0.011438842930396445
236,-0.0216898947441172,-0.0064098389697653775,0.00769670428912853,-0.0003906650126020511
237,-0.009376529436998661,0.004217069107165158,0.007404898171829176,0.006571913459792536
238,0.009299013161180614,0.0057712817231424214,-0.005260191659847592,-0.007080223662836343
239,-0.0005362316219005285,-0.011015290657948717,0.010672615576283972,0.0022831039864160906
240,-0.015130712453709824,0.0005859292886972981,-0.0007364142994449246,-0.008857002941659324
241,0.005372648247318248,-0.013845113514257648,-0.004371761814925596,-0.027704272425614122
242,-0.00623054712288747,-0.0148322450961242,0.0208499456660958,-0.010410058091731176
243,-0.0008043571952428114,-0.01105099281626297,0.016665079384487507,-0.004125704127955699
244,-0.007722450391003146,0.002559047168339197,-0.009715326626327748,0.0004550519688457049
245,0.0009733703794704851,0.028408348831060557,0.0009252306684137627,-0.00390678876978082
246,0.007424146915174321,0.0016668025943532667,0.0005624708863061281,-0.012731851965509484
247,0.01002982566611583,-0.0188548792526616,0.024420441102517985,-0.0005621162311865552
248,-0.013880643185509496,-0.011595540173515384,0.025358498758378423,-0.02347042877644554
249,-0.0217232929280567,0.0018686938030479903,0.013451512761763786,-0.005250844772671925
250,0.012224033567324072,-0.03805076513950717,0.00882776598423797,0.0010193245300470798
251,-0.011983222363033114,0.030885277263776913,0.002712140448924297,-0.00802176356064545
252,-0.0011166645641051084,-0.01219646480546368,0.011139378871440618,-0.01084689233507282
253,-0.0016432724628385113,-0.018150748996488327,0.031944728308047995,-0.013690609435186227
254,-0.007996769774844105,-0.022362367020900123,0.01487437989730672,-0.0032484941105464455
255,-0.011717254895740726,0.014468050281950636,-0.01193334756031149,-0.005045668434943738
256,0.0036145263720901294,0.010597783359860731,0.010337638366901368,0.0008507321425136543
257,-0.016450124578354732,0.027232337724072485,-0.020111916691658696,-0.0010041929048740812
258,0.0010517923899746914,-0.022574551165145732,-0.006879991459235786,-0.015602393064396154
259,0.026413340126234704,-0.012158798078962245,-0.004161517255400759,-0.004542905844426501
260,-0.002221588926253404,0.008309528878326582,-0.005519139491403331,0.013827563237046413
261,0.015656868994237804,-0.012673926472790973,0.004986016115832582,-0.009414258705612348
262,0.0023292633047599528,-0.01095386404279391,-0.009218176984860858,-0.003890534799608394
263,0.005241748542519496,-0.003872091634244029,0.01225771834399814,-0.010347939487168768
264,0.007409671486126562,0.007557088688439983,0.009596265534697558,-0.007401996073656117
265,0.0026714133036785143,-0.01335824843346196,-0.002322652676472496,-0.008237526719095344
266,0.023705488447272313,-0.011922558141793157,0.013055182403776636,-0.00725483746091889
267,-0.023153933318594555,-0.004116965595241755,0.013492393165018752,-0.013960420149818274
268,0.0023693997180826956,0.010758400742344517,0.021605199224933095,-0.023494205656737856
269,-0.015677222749520055,0.015570989378476998,0.01981673376372751,-0.012666670609649216
270,-0.0044504667519069535,-0.01620678930744054,0.0075773307892247534,-0.013102773052547187
271,-0.010306032915542222,0.0023280963499912434,-0.011711790946859386,-0.00709793361040635
272,0.005319192116059266,0.010119558503874726,-0.00021705857236701078,-0.023750446658049207
273,-0.00984579835696335,0.017899215117512055,0.003922692778044867,-0.008087843560571876
274,-0.0007859232375324257,-0.010167750513652036,0.011814573324408814,0.002381858869599502
275,-0.006225254784782586,-0.01866518310186699,0.017456851358994635,-0.030404132602678845
276,-0.01244941541892031,-0.012296743939661063,0.0023518047204353493,-0.0010262232504527145
277,-0.014161723705373578,-0.005132662140284456,-0.012500131462873666,0.027986513800288604
278,0.012421951563164918,-0.0031951293972004814,-0.003968332551786572,0.00826969516343942
279,0.010867572977000538,-0.012045133290209037,-0.008598258628363515,0.014793599125546722
280,-0.010057782220920278,-0.013256620914108546,-0.0077341040518401245,0.009721360048837965
281,0.005864275784682445,-0.007858334273843826,-0.017591788664795542,0.00030356072427279357
282,0.007494660811277178,-0.0017642876819032763,0.0042723409157644655,0.0022265628312685415
283,0.01622682499775415,-0.019687173102587607,0.006902714153809583,-0.003874653935394892
284,0.0013644458240013118,-0.010124408497723811,-0.005027123496932988,0.016806274469792933
285,0.006597860722500197,-0.0025300310997930053,-0.000995092798625175,-0.006684672447766025
286,0.010678977172078191,-0.02375119201918352,-0.001055880119088853,-0.018506991819861037
287,-0.0050715260130335055,-0.002068210018374882,0.021540244111466718,-0.009397642166327751
288,-0.0022568666974876125,-0.020387345658205217,-0.0034239721009907483,-0.003688608582637014
289,0.011952339254918959,-0.02312287067373016,0.013061890871906888,0.004252791105049259
290,0.006767809190303319,-0.008031410874183277,-0.0010276311654988783,0.0026953482463150016
291,-0.011455785354518671,0.001645773942965117,0.0008691233409787936,-0.020097258124182758
292,-0.019418633126083825,0.0035258366358127563,0.018416348109640556,-0.017753560186177766
293,0.004204630138435766,-0.011119520555319421,0.010902539239790275,-0.011487051614363196
294,0.007285817680885068,0.006434054747692477,-0.0023564311097620137,0.0005316160115342724
295,-0.0006188192652309444,-0.026101672618515863,-0.003992975772967789,-0.01892638251987108
296,-0.011782455002340953,-0.006068633533452213,0.002390028905454806,-0.006214789666277409
297,0.0018832769619100101,-0.02168339061857531,0.015311067323710561,-0.014352666289894043
298,0.014382669562830616,-0.038160605310070914,-0.003744015026485441,-0.00278323157198527
299,-0.025883824314290718,-0.0003278980363674788,0.027429017229748855,0.004228544633984096
300,0.0316390014723572,-0.015139974524064882,-0.008027216078161052,0.003407920730968202
301,0.016074256812986024,-0.025306523793898597,0.00579804931070509,-0.006594047314533807
302,0.012202950638860467,-0.005712381784331304,0.021453852153267186,-0.012545031771864298
303,0.020343500574896624,0.008520092166206026,-0.0034045332466088717,-0.002179121063069163
304,-3.729958964513496e-05,-0.0005526937377089154,0.020844544637624276,-0.019473976809491436
305,-0.012167825965203025,0.003144214769428609,0.016782689270905874,-0.00496967148787379
306,0.0004953774219178685,0.002209680874203239,0.016306414596284208,-0.011492191460608717
307,0.01629917440940901,-0.011212098124169604,-0.0084364875481882,0.009469095228375668
308,-0.009427189599403673,0.016831931049809144,0.012550987963045369,0.003957312022979788
309,0.00424079667059934,-0.015867814544170373,0.01526049298912158,-0.006630798927004886
310,0.0005434923306684453,-0.020407237925977553,0.02607841724412655,-0.024801523841078844
311,-0.009803584580791566,-0.005633267876963026,0.013110319964037368,-0.00233540901202607
312,-0.005190718734715267,0.0070695506312540455,0.010968336757400367,-0.00310240594356952
313,-0.021137610345900223,-0.011188358334540417,0.007591018914445712,-0.0018690564955416598
314,0.019408313554174474,0.0011747698866261108,0.025947606690919393,-0.019240272234810916
315,0.010647307586417357,-0.0021240290957774428,0.0012038946832135763,0.009726020921966493
316,-0.004080867705282789,-0.01656297398353228,-0.02704037115285899,-0.00045586709956378033
317,0.024330814589624508,-0.012496817796299652,-0.0074729341864190136,0.009269555036837128
318,0.004626027020676519,-0.024157386673350455,-0.004121604612705816,-0.012611074868692115
319,0.004724366875827106,-0.0025708595611612824,-0.009372080754909674,0.015280592386185059
320,-0.003374597090432877,0.020725431804061754,0.015610166662328036,-0.005831618074422801
321,-0.011025858153861468,0.022303356223938163,-0.011890538725403865,-0.0043208327375232405
322,0.01195159216477995,0.021362945046676168,-0.013899980155921636,-0.01586000056232578
323,0.011355340030676734,-0.012469521072123438,0.006172223664103638,0.00233488646915506
324,0.030775924901063123,-0.01725805665643114,-0.008865675964020348,-0.013396031692071727
325,0.007476920653554035,-0.0024167661789948167,0.01552264837206211,-0.0029852056608206693
326,0.016362745891597925,0.011604529713015052,-0.012271574094867153,-0.012067224347632001
327,0.007058854177993132,0.0117184175039985,-0.0003633034446934669,-0.012642605275294469
328,-0.00016998689758497513,-0.0018750523414855574,0.005154782724941874,-0.004032369533028953
329,-0.004923422448107617,0.0109783745548331,0.002859383292249927,0.005337598851943414
330,-0.02520313807915093,-0.0009617529946876511,-0.0012705338218835778,0.00919238634299232
331,0.001464381381331073,0.025957160498753587,-0.009280811187251574,0.007010671090615173
332,0.011466198326486357,0.006351055291254003,-0.007011529466008244,0.01343156970230069
333,-0.0010878853020712504,0.007616915892505774,0.0016233908190961914,-0.008817115185202597
334,-0.016822059688684554,-0.011907677023530646,0.001969137350793862,0.025205546114517457
335,-0.0015527668450795258,-0.001688781882936242,-0.005320979938094243,0.001668111964769331
336,-0.011808098163316282,0.0005485794969827931,-0.036969950758060074,0.012486667345461904
337,-0.020991314093355543,0.0008174708207464834,-0.013648273463987561,0.025056189219650235
338,-0.017565504536571533,-0.015482248410269274,-0.01197845474806325,0.0024426719967055206
339,0.0030715726468050508,-0.02080305174238175,-0.014129847491774422,0.0063722398977536085
340,0.0042616607622138255,-0.0033656725421337473,-0.000914904227457029,0.018024236646021
341,-0.00022141263081249261,-0.008960039750133863,-0.016477169363091976,0.006202140777132329
342,0.02048426264906471,-0.007484624709450973,-0.01172824949316353,-0.002159481161543699
343,0.0016509933390683634,0.00587269469664509,0.004865434117718678,-0.002249820382538434
344,-0.007181006576875368,0.018143685017304206,-0.0011236518693320255,-0.0013263515273158658
345,-0.013641827504314844,-0.017284107654331516,-0.014732878567519137,0.009810497148016578
346,-0.0022048566959076152,-0.01607382432573669,-0.009331860769400012,0.02314525771222635
347,-0.014482430172686538,-0.015137462305766427,-0.01565572366863208,0.011507860244337732
348,-0.006179069303775428,0.0004517087428455124,0.0006665681773359645,0.017489252828572867
349,0.005040042634703944,-0.0020841596102591313,0.009895016789747784,0.0011327608390842943
350,0.010837513675741697,0.004050786144199141,0.011984020990189045,0.0010256238626781729
351,0.00047734025158103956,-0.0013787922296774364,0.006303058392283398,0.001153150365087693
352,-0.012387815383100265,0.007758899225434272,-0.0035194884357290022,-0.004464309432102689
353,-0.0038595303436675795,-0.005294533844710335,-0.008550687537394627,0.008553303744049416
354,-0.008728403259987572,-0.023595482038727168,0.009227271138546907,0.0023501423568668316
355,-0.010808602382409474,-0.017539256779390444,0.005129677575558327,0.019492093505296224
356,0.007357270193477748,-0.007721613521903186,0.02137182308955408,-0.012149200027781323
357,-0.006878546718612501,0.020381532080386924,0.016855030082367176,-0.010358678610152657
358,0.0038359694528241877,-0.005205782905927578,0.0005509097202066381,0.008806876501829566
359,0.0013696220430427096,0.0008530007109929894,0.006726278647506944,0.002799999412384436
360,-0.014194096597556796,0.01750615020855644,0.010671123121250825,-0.005623003699968364
361,-0.001421960693884982,-0.017673052506982707,-0.02109134350065013,-0.016287750019810157
362,-0.002603315252363133,-0.0030576861253792486,0.025219688542235316,0.024199743911738906
363,0.008270364183541259,0.0006733892246809413,0.007777962544957978,0.010893918674068324
364,-0.009336115328876569,-0.0077599205291713595,-0.016478537083202592,0.011126044087001493
365,-0.015226169798686484,-0.020057128545532578,0.010388712534688664,-0.004600566422590119
366,0.0017434377446051681,-0.004269175178772678,0.0022700044207092287,-0.011429111389190193
367,-0.025371192581041875,0.005553937548914769,0.015056421672641873,-0.008790352222051413
368,-0.007951061465996837,-0.015984467148096388,0.0009526372386079519,-0.005985466630451236
369,0.006257340306386147,-0.002465324322971394,0.013346765137009565,0.0022495044123629696
370,0.005172956525928631,-0.0008519928921795553,0.021243287168852293,0.0004991348945979257
371,-0.00483762143335817,0.0013056640589937016,-0.0160226235257553,0.016445449660548
372,0.00021654827909175811,-0.0011790539712229016,0.0022130178420904575,-0.001606404332315824
373,-0.005817579830805021,-0.01763772534972411,-0.0006905809347150343,-0.020558160313664513
374,0.004058678566630501,0.010484032291430674,0.010320798472708679,0.002819232766774058
375,-0.020967065796962486,-0.007907684271627077,0.0024767377889005353,0.00033662905739554114
376,-0.0018553742767270832,-0.006709985099943423,0.00324454847099186,-0.019155926236693148
377,-0.0003219954115059855,-0.010069512232496428,-0.01376942738336168,0.017828421630438736
378,0.012880368499003945,-0.01815295340141337,-0.007319909801323894,-0.011038377836544898
379,0.01474021287849729,-0.012523697792933127,0.000193516632993625,0.0010162576673915225
380,0.013515618014263495,-0.002656048516724282,-0.017098941064444834,-0.010163972864496388
381,0.007352425242876678,-0.006617705342577533,-0.0174978317971784,-0.008320022531333581
382,-0.003179649853563859,0.00853865677639192,-0.012671109475247746,0.005912813102769977
383,0.0078043607676448355,0.0037345024469406583,0.002294895896386525,-0.019327077356941277
384,-0.012675483546792245,-0.016058826764677892,0.012882429711683744,0.019960263186364655
385,-0.010757242549971053,0.008482078682949515,-0.013003023236720757,0.020275002856517794
386,0.004421064821570674,-0.0001436108970213705,0.001024023255532507,0.012434776456530386
387,-0.01498743620730372,-0.02900068171258081,-0.023869015980492844,0.007681887962765934
388,-0.015522321548087567,-0.008599988626410465,-0.025570117688629514,0.008094928854076382
389,0.016678254498313377,-0.009073930072059054,-0.010749118158477908,0.00872844387527079
390,0.004522601344621095,-0.00391746452922536,-0.010842572693435555,-0.006584436559011269
391,-0.005513687258569175,-0.0376707390786243,-0.004393363264668031,0.018791643755784064
392,-0.011511939766756124,-0.009436358352651697,-0.007529228332706841,0.01510587666831691
393,-0.007996161453320142,-0.00418122500172937,-0.011779360288984431,0.023422222467426253
394,-0.004107478083748354,-0.0005821001349452868,0.00481660325367981,-0.013408121649565544
395,-0.006941687430492336,-0.002534864508370768,-0.009286634110974369,0.01811943372142367
396,-0.014259692262458724,-0.011865930116682258,0.005191257948739607,0.002050442036821772
397,0.03415235465978115,0.006432123487994557,0.0025513717954009805,-0.009700469852304593
398,0.006205707631185744,-0.003103522652546884,0.028609602528757574,-0.009015473136533144
399,-0.02828062540245941,-0.015424704035243363,0.00873500170312044,-0.014470264842958285
400,0.006101005034266724,-0.02108716239398708,-0.012012212403967411,0.015297024155930901
401,0.0003839990691205068,-0.006797013671219839,-0.0005961022876213713,0.005661115494592315
402,-0.011703004696308594,0.010327266689335216,0.015300951029060025,-0.0018439188515037813
403,0.014469134412935085,-0.00997498439693546,0.005080325339069859,-0.03458843680080353
404,0.013120535519373769,-0.0187674241909519,-0.006163257091781912,-0.0028059134328215244
405,0.006683039617472626,0.0016228568196700553,-0.007763694639844147,0.0144768727990786
406,0.00816169197403487,-0.009469839582396392,0.008810444821089527,-0.009072810721198915
407,0.00893621680386168,0.0005244805865044083,0.018398511394646506,-0.011727539519761987
408,-0.004300850232758897,-0.006265769791594478,-0.02053229580200108,0.0018610268029531983
409,0.007121456818825271,-0.0026416397617726414,-0.0028975033779564162,-0.013651206030557063
410,0.03094522777888919,0.0004416016190945343,-0.006832037413020185,-0.0033199421269527302
411,0.0018194997000374588,-0.0007189861950775123,-0.001787665514094553,-0.012113144495649373
412,0.024405347050007766,0.0056906156627115415,-0.01774130759126528,-0.00684335242281136
413,0.004125363355633413,-0.007340336020742617,0.012001590955878601,0.004554176085965674
414,0.0028436547437366904,0.012465313521142253,-0.013581753199945423,-0.0028931493527981997
415,0.01680342840763236,-0.01457289066601112,-0.005437406429662424,0.009210644684480402
416,0.01119957375023095,-0.009576652728161555,0.0039499902484564,0.007682549694752333
417,0.003382256792775887,-0.0052851892612154824,-0.026912173864475794,-0.004022593012839621
418,0.008206705696650454,-0.005183058745376998,-0.018382023008681983,-0.008581284712602263
419,0.012914468198838763,-0.010468445907215492,0.006601202192233242,-0.012409785096417197
420,0.004134411165572978,-0.0029627146093569503,-0.0167772985836214,-0.003516032690172725
421,0.004514861110904613,-0.002624010294588938,-0.03229177991122455,-0.000669370913756465
422,-0.003285679279090911,0.005695255714975063,-0.007782990869247081,0.014863624733232793
423,0.006713089336814816,-0.03136886310138318,-0.0021031260320322925,-0.005606330215770101
424,0.010769425311421476,-0.0018295178179882248,-0.0139531220250996,-0.00394793808590259
425,0.0059774639895312275,0.002582796982160951,-0.017456559928531144,0.007609849378993515
426,0.014671075845825074,-0.006931367751820651,-0.007345678698899264,-0.012855537449988413
427,0.013188103843242694,-3.446884147193995e-05,-0.012398633326028979,-0.003151721436484478
428,-0.004037556424173356,-0.01363684517452415,0.01024948065542587,-0.0006588445875953796
429,-0.0017345712223477629,-0.003627876257773692,0.004373749683258769,-0.0012670150700197285
430,0.014929397106319296,0.004679862785415281,0.0017193642670205323,0.009618443218510629
431,0.01628126297167873,-0.0030701895467040398,0.004195785990259693,-0.004991057273837309
432,-0.006764003703062004,-0.019165758710486896,0.019168170062085335,-0.0039611678815593375
433,0.012615620331330929,0.007650298064151763,0.01129724722196867,0.004257877343886232
434,0.0007029356340590622,-0.008440397074447985,0.015347315753201508,-0.01109549902252301
435,-0.007722711180182403,0.003969971977243545,0.004103562448495297,0.007786461654529918
436,0.00013970762188410116,0.0062668599831718725,-0.003584136356636229,0.009878855220125196
437,-0.0024816539788049476,-0.028076957759553683,-0.0023808118072002416,0.0007588862357989228
438,-0.0012260934435855074,-0.01168946173933429,-0.01333946723665886,0.0037697775286607005
439,-0.008228149468364525,-0.01932652279852109,0.023708385191585343,-0.0011688345005985649
440,-0.024930797278519583,-0.002949693830071022,0.019208074379539572,-0.003290591885921241
441,-0.019705101213680836,-0.006011778813619892,0.0077708376973716084,-0.01743618608342292
442,-0.01653347573892386,-0.004470042304956551,0.0072868609886175195,-0.018561093694088288
443,-0.035439285604149426,-0.012714697943699966,0.01853780192857206,-0.00533743267301013
444,-0.0060676380083806705,-0.016219710061996948,0.005672569218736435,-0.014044933856991702
445,-0.0026223304261826096,0.001659670646314492,-0.0004950832216348058,0.00277122361590625
446,0.0029626919849403475,-0.01741798522577544,0.004111331757938448,-0.009994153220524849
447,-0.0012611591808936544,-0.013134026260603244,0.014219161260772592,-0.007734621907861608
448,0.0077934432140151656,-0.007669672211685324,-0.010607718779975482,0.001921533966753894
449,-0.023702220765640915,0.00755359653970527,0.004008309224723772,-0.0008566314355419213
450,-0.0027649994992084027,0.00494535954970119,-0.013005328902732389,0.001143677610938996
451,0.006019730885069192,0.013684487816364072,-0.000973741948732579,-0.005525577407721984
452,-0.011811883210800914,0.006819687124535802,0.01404516638931522,0.003932278467663803
453,-0.014194941351605065,-0.012071134478471362,0.017202141392108395,-0.015990655373900674
454,-0.001357648977531579,0.005964325988207463,-0.014710434346210532,0.020148786709579047
455,0.008816807931725006,0.004587620358821795,0.01133721874284537,0.0005885059878266186
456,-0.002557961518726684,-0.0100857050091925,0.02242166894527371,0.0020417168467094836
457,-0.001018649440181661,0.0048092082110957534,0.018040960575857107,-0.005237478266165813
458,-0.004497785058350105,-0.00027015001198285924,0.0012593564985522812,-0.016716132807081882
459,-0.00998675149559578,-0.00412839922226808,-0.013249868947255135,-0.01861648119137727
460,-0.016107546130613846,-0.0029188891741681574,0.002310819451525162,-0.011833462870246713
461,-0.0006595876458045195,0.006866210475963952,0.002875227458034945,-0.0009230399497473389
462,0.014337191723598567,-0.0015513604318251716,-0.01210297178806682,0.02337905731456196
463,-0.007228814792160982,-0.0010564478976980087,0.0029850970861847533,0.004347171745990651
464,-0.009201767300194794,-0.011260457163640413,-0.0014019802618844587,0.03058300249199544
465,0.0028494845793017682,0.0028706088046114124,0.013074781609307487,-0.004143653991060321
466,0.010337083514070164,-0.0011988942290402365,0.014202549360053232,-0.00731310712261671
467,-0.0002542402100781173,0.0011647509807893423,0.010759861457742078,0.005099590657114319
468,-0.004237309554716729,-0.02097406263039297,-0.005035223079053219,-0.008931699887519002
469,0.012369002142955294,0.018739828446502974,-0.009075941958949015,-0.009112600933330894
470,0.006502859428660318,0.0021179352725392473,0.015166915098462623,0.001874516105353083
471,0.015604634866660793,0.014425932870234916,0.012811225297759245,-0.0016055910190394072
472,-0.012560472300215246,0.005637840202425533,0.0075309040511990855,-0.013156605797058423
473,0.005614389509719036,0.01581097261126488,-0.004458422913161759,-0.011135544645091611
474,-0.004540589567669378,0.006197362291121625,-0.014666527621991433,-0.0033645496557932362
475,-0.008512717800634912,0.01153946009396866,0.006500103218202079,0.020368208060277386
476,0.0153587611026254,-0.006694059629907746,-0.010198147363207115,-0.00024015073461307093
477,0.0032772903875833963,0.0069562749327682985,-0.010203334907105965,-0.017996244930549916
478,0.012980113778871516,0.0005585546150821017,-0.0066265623437255245,-0.002740961900239363
479,0.003642106994893526,0.007060011948885642,-0.004041544351022984,-0.0025763433490865366
480,-0.0211787905453758,-0.008691241592689119,0.003666423423582827,0.013176353879543643
481,-0.010288174940009833,0.025392770060998736,-0.0008935650682966916,-0.009725510196358938
482,0.007838415084474143,0.00529123167197813,0.00926767743562543,0.005931342953925117
483,0.005615926069114892,0.010255829835883785,-0.011699455051790911,0.0016419239762375146
484,0.008128618204697643,0.014744773915237512,0.019832136313307314,0.006561159177210168
485,-0.00795978093003297,0.0013837177181352264,0.010446194880796173,0.006957323327403501
486,-0.009601665894918118,0.019178779671642263,-0.007072069562343355,-0.002494270533866508
487,-0.018302801414834365,0.002339847169436526,-0.02519453016658713,0.001039204883696452
488,-0.013680209039733783,0.014684655016567504,-0.023437983451127714,-0.026314063459469232
489,0.0038586859110059414,0.006733900400667425,-0.004652361893610439,-0.0069959427367673995
490,0.01957446877628435,-0.0009278341370947195,0.004856808139843078,0.004502980447580838
491,-0.008770022720846092,0.01170599356546392,-0.008915021138846112,0.0019630318569094744
492,0.0010727809777811563,-0.0014712898408436542,-0.01135706069923113,-0.012293462279304484
493,-0.015948231528586473,-0.003421439046595963,-0.006181726239885748,-0.022487864810098734
494,-0.007105419607647715,-0.012896656788897195,-0.00549437886803798,0.01393797817823188
495,0.0039919038201173705,0.0032246978155261465,0.006209219955547279,-0.001821600013762299
496,-0.0005434444759402185,-0.005383813528523438,-0.009300014664886655,-0.007361491348433128
497,0.021963522180787187,0.003102996683313512,0.006729387202318244,0.010946065864122861
498,-0.019266065813675792,-0.0055921388483111505,0.012421071068339276,-0.028317637733558467
499,-0.020128720112198566,0.003101781194449163,0.02139353552867838,0.003786175889278556
500,0.018768004209371063,-0.009854374249586944,0.0068441065994811635,-0.007921485423124574
501,-0.005514537443703746,0.0024982330836625082,-0.006694228428751628,-0.007342058907599488
502,-0.01485027883671715,-0.0007700343642730538,0.006596748586157561,-0.012185595663170729
503,-0.00294657905005845,0.005831342170218155,0.0029661296017695813,0.007168696109231032
504,-0.011247372530152162,-0.01720396846475786,-0.011182958719716014,0.015662293069879426
505,-0.008223536255165032,0.0016284486054612948,0.01584199143525395,0.01192664711779271
506,0.004584650354591369,-0.004450301655007454,0.014762349509682113,0.004579966713442906
507,-0.004947090051885299,0.009538245499040716,-0.0026602124267402143,-0.004404069471592165
508,0.0026591814176054242,0.005824238188579814,0.003244373997023729,0.010518716382426506
509,-0.020428570228966957,0.021099946495346023,-0.0014119387850287013,0.011466639169065382
510,0.0008410262640328475,0.012163129579991832,-0.007314066446543722,0.005877160948958985
511,0.005708605268133154,0.009311835600106542,0.010631241373214475,-0.00788414945089558
512,0.006190903776972398,0.007514483121705797,0.0008362485825906561,-0.009390843670740239
513,-0.015194039585988884,0.013809421084452444,-0.014918085779143305,-0.002130257722590909
514,0.005150596724119206,-0.006893423866874877,0.0049477113559291885,0.009317207213901921
515,-0.008619924528042,-0.00941899930351862,-0.006204884355523068,-0.006296135441105521
516,-0.0017159784846464531,0.012009711112322706,0.0061282881368723285,0.012500785328957513
517,-0.007454922066986544,-0.008091710563353944,-0.0021272015973920083,0.002865517017538479
518,-0.00028393604301800055,-0.0014776008002416155,0.0013843614707349729,0.007221664824201989
519,0.005630855685835744,0.009924639950192628,-0.00889570624085689,0.01794217305131315
520,0.005509104882158827,0.011646407078985642,0.010175332990205116,-0.010690056874900543
521,0.011128419010079807,0.005603017387877305,-0.0003434432641442278,0.005051549841244315
522,0.0014558488382643323,-0.011523175293175128,0.00907491168901328,-0.004397526984344808
523,-0.008185914455705474,-0.010413767779559695,0.004733869721243695,0.006073915989772678
524,-0.005609447106223592,0.010490191977369048,0.012268217600064371,-0.006185079964342625
525,-0.022279083564578455,0.005190147441483713,-0.018597352662594966,0.005583398899649067
526,-0.012127293800700897,-0.0036923069807430825,0.009088641949419851,0.001330555265697621
527,-0.01376019229566068,-0.0014324594361309975,0.0018411631582771154,0.003035461214330947
528,0.009803822224852347,0.014724626232591938,0.010751455218241123,0.007050752390614203
529,-0.0086525521569533,0.005974319982499841,-0.00868826292608071,0.00025779373607207794
530,0.008512045567360496,0.005010208891020867,-0.0030521939290569515,0.0071378666740279945
531,0.01898795886439849,0.012444843743392801,0.007104049115297644,-0.000742870914812545
532,-0.008800847394970545,-0.001435626808431791,0.006500056713114874,0.004953319771895339
533,0.014302198718370072,0.004709598827366582,-0.005594828709102967,0.006572393006051087
534,-0.007607243593012194,0.0042302985187487084,0.0040423311014698045,-0.01327531094905437
535,-0.004185880902170227,0.0016151755414229208,0.0027105178540901774,0.014271778539366677
536,-0.01801245050045478,-0.00562373016806798,0.0029196623713366927,0.015636316937127522
537,0.0047875635842791016,0.0015785868205073844,0.00010113234676058239,0.021942042801930125
538,-0.0013018373697022327,0.0016100584047787406,-0.0037781356553393294,0.007542172972358704
539,-0.0162908430745488,0.014976025658918334,0.018125830044355515,-0.005730539583134671
540,-0.006514890986129945,-0.009970187527822002,-0.00993415289630842,0.008700420519781716
541,0.0060882117750145045,0.01497849450090673,1.8992023596546958e-05,-0.008116686118050642
542,-0.005956609293258869,0.023230021470103047,-0.011019979437841717,-0.008229885314624161
543,-0.0035531742118379258,0.015811971959331705,-0.0019176079051603434,0.004643529405046026
544,0.02131995827685933,-0.02706601466098584,0.0018390862258431276,-0.00512460825396773
545,-0.007613094821275872,0.012407977876935775,0.009443803166727237,0.012407117592610062
546,0.0009781043321831526,0.012610957878290759,-0.0011333551588085771,-0.002454970692679873
547,0.018724590209449037,0.007104776867553456,-0.008168924846651085,0.007422674087217845
548,-0.008669141766759841,0.014535600344315527,-0.0026781283493331094,-0.01846560760906774
549,-0.001788548020891656,-0.003259161502265377,-0.00603384562081373,-0.0018141868566701276
550,0.0061416770284905995,-0.017326593542002264,-0.002368815173349872,-0.007934295218130766
551,9.230849472633803e-05,0.00821499639343276,0.010859196264959917,-0.012825055759582598
552,0.004032991477272883,0.002172129234537312,0.0007036965940861847,-0.004284955872897942
553,-0.01026067986964468,0.0038812278333812244,-0.001810660737001141,-0.016114631494081304
554,-0.00014535390951604343,0.001270147118199958,0.01553365048866962,-0.00494497469275586
555,-0.007458407942011794,-0.0007991909947941134,0.0024681959786526197,0.00894734357181774
556,0.028052111112721868,0.01006517169796158,0.012620582313045059,-0.009113069841584985
557,-0.00847512172335702,0.0006550448910342722,-0.014898036145149897,-0.001767473611126015
558,0.005684662355840327,0.01749608819949254,-0.003827820930280896,-0.015964431414883476
559,-0.005079191160800119,-0.0038619927380893157,0.0047079604573713185,0.0026519485221529553
560,0.00635284299860834,0.009946828209557728,0.013718498295724144,0.02243284883478437
561,0.0037818001048004948,-0.004735863547511424,-0.00249414012427087,-0.00976874880851645
562,0.009904845149269328,0.01830801917072543,-0.005468257935011721,-0.0012533984933512327
563,-0.0062674677467564445,0.014556971492806462,-0.007832517641262937,0.0063511375159601485
564,0.0022047728752057107,0.01019468963502022,-0.007408877123498012,-0.016445447570379326
565,0.008634430708735492,0.0018014663837874355,0.007458917120701993,-0.0004942226242013419
566,-0.00030624367359365025,0.009635654344873025,0.0034360447362705663,0.007617451860850266
567,-0.003749594793320791,-0.0009720967986738484,-0.005517313373863532,0.008627610418506326
568,0.005231896047646471,-0.020396580503201263,0.0010394764627308824,0.0023292474428414363
569,0.0016505993769059602,0.0011403057024410729,-0.013843198376886695,0.006281218283381276
570,0.009735359978830052,-0.0038704799410329296,-0.018859757873226923,-0.0023990963568767524
571,0.028386203413985008,-0.004287219107259327,-0.0020967323330844663,-0.003744529371031366
572,-0.011422887770516721,0.005393558022766944,0.0078088874700116264,-0.0012277666031342796
573,-0.0029822101598454016,-0.014340209130061567,-0.005050395395024267,0.0162591689006807
574,-0.023360679425467833,-0.006331973386009567,-0.004480918715578752,-0.008017096999400227
575,-0.0025046807387172085,-0.00011699013451463783,0.010739666899789809,-0.009086588261787867
576,0.007081801557011187,-0.0010834130535625863,0.013775715512294128,-0.012157744445523233
577,-0.001353232461030488,-0.006141826005280956,0.00123503125174978,0.004717983676052306
578,-0.015761109290403343,0.0124687542909226,0.012456338315955847,0.012085131390123691
579,-0.00659727161797164,0.004297067693282512,0.0032556531672568315,0.008052586447779841
580,0.027001194919748932,0.005017328566664229,-0.016379487930134905,-0.01994826773636411
581,-0.006159548921434932,-0.00844327354473821,0.0006711617442471668,0.013999356855607293
582,0.00705239867639917,-0.0008283256312862163,0.00024176753269432283,0.006897426554589113
583,0.006135151366496714,0.013640859608150051,0.007454089009759901,-0.0015683298422780232
584,-0.012527497656565,-0.0006894557899058511,0.004807811545973825,0.001499957683046347
585,0.0012274684981572995,0.013572508663293072,-1.469761505752403e-05,0.004761926792444324
586,-0.008609012743355555,-0.00275645357773289,-0.01806681461355152,-0.0018507879126562683
587,0.007148420942357977,-0.016690154152692652,0.009909862078702869,-0.003960641466679878
588,-0.002229220151715925,-0.0016971479441326735,-0.0034075583154124854,0.0026568965063779085
589,-0.0082371692231229,-0.0012788432335408802,0.00698234328455751,-0.0075008602964823125
590,-0.007546521846765196,-0.017311129387956675,-0.008872635112961463,0.006441594348496207
591,-0.00015453632168556345,-0.001973309095888588,-0.003909954665637276,-0.00700418175219246
592,-0.0006035310208283936,0.0020726814456283843,0.024092881087483895,-0.0071947121096978105
593,-0.015565730736713764,-0.009206341453108483,-0.008723100500191356,0.020520498529864734
594,-0.003107157209477682,-0.0012206614701296495,-0.017561894199719444,0.00017521723144493966
595,-0.009682197326538933,0.0038657633165130384,-0.00030236066253785856,-0.013285454139133243
596,-0.014597209175406587,0.0038602313808668272,0.0015782156449176549,-0.008786340763909948
597,-0.006549065692319244,0.0047590197756310956,0.008240303128309598,0.010976527289686728
598,-0.003470194612333952,-0.0006919758424683183,-0.01183377561689314,-0.008930954953933775
599,-0.0055505995535989035,-0.011709505412510446,-0.003837849483068935,0.00682196305787349
600,0.012729996616188956,-0.009583994536956622,-0.011325377462634914,0.006788691605895714
601,0.005129028669526273,0.016406990955460967,0.00484954461668607,0.006055581378891262
602,-0.00950934409605326,-0.003133987947182463,0.00976562829191005,-0.0031106766877253395
603,0.011219779929761716,-0.004496778889137692,-0.01923419133330178,0.00028292663960804727
604,-0.011001131034331027,-0.0026265430171136684,-0.0033187982594198684,0.00596709618578381
605,-0.01520216380393892,0.0232170900973573,-0.008882862070280962,-0.003689784253170236
606,-0.001208370767899502,0.01088252580593575,0.006074477339636647,-0.00013765750552568074
607,-0.005844738617707569,0.006110048363550944,0.004972220177687312,0.01650398456394926
608,-0.007141085372686527,0.01887502479014988,0.0005404001508021221,-0.002577246797452448
609,-0.0139202144269781,-0.007052532204157211,-0.001368633641400419,-0.012373145353846026
610,0.005222582195721924,0.01831587799908725,-0.006568794105533803,0.00894056170995196
611,0.012361494491643718,-0.0003098649239552394,0.0021771454110285442,-0.013065946090883714
612,0.017836542240313304,0.009974357849787936,0.004490458159190556,-0.016815699791342776
613,-0.006600812993139187,0.006785919910120732,0.011499988157992424,0.004073399317309528
614,-0.00048379647463592083,0.004415148987299273,-0.009120739393441487,-0.004843974519811317
615,-0.028964691471443458,-0.0033684050667094163,0.011303554869496552,-0.0036682596108249914
616,0.0009933805667352578,0.004427925028868291,-0.01561513996464217,0.01492110822071563
617,-0.0257035637494792,0.010023654691434817,-0.0030374107624921228,-0.0010080584830170988
618,0.022528891290878587,0.010587637371168239,0.01262379522000816,-0.005147397257191413
619,-0.011156884768157247,-0.00420392567034997,-0.01213360104916428,0.008208448448966467
620,0.002679533486647001,-0.0008333866255672549,-0.005291476704251391,0.008053090871817353
621,0.0020973265793870627,-0.010899132004578996,-0.009580134310284066,-0.0009469055343734671
622,-0.003580890105193033,0.003895385593615873,-0.00025625958823351246,0.001638852937302906
623,-0.017136557726091215,0.0030843626089613165,0.005789881848412444,0.008614145665110417
624,-0.0082801955645792,0.010431364605177629,0.006671059621770262,-0.002379967024849673
625,-0.004933173809749536,0.018803088966581158,0.007167333617983123,0.01951960661992741
626,0.004521227587771579,0.01402987830753615,-0.0060020036864860534,0.005101777293721669
627,0.020648231045602924,0.012899512311738652,-0.0030710243804140604,-0.00033655643745430185
628,-0.003358823252352384,0.001028114678460401,-0.03008300611119826,-0.008439011959558903
629,-0.008040301812116743,0.008004663089765492,0.007488176092555248,0.010305696677764662
630,-0.0053840660697097985,0.007275866515942986,-0.008456268986046761,0.0027244711319612115
631,-0.007593598174217365,0.0017328519143793993,0.0062727756890345815,-0.007307895649632205
632,-0.011421192916477361,-0.011396869525945475,0.0038269090104082917,-0.0009954877302036402
633,-0.0034752329485124847,-0.005807375487102464,0.005033674895764745,-0.007846723462609144
634,0.007688983173211707,-0.004881993983407343,-0.017287355146897623,-0.010509911771680302
635,0.006163745280790301,0.015210316378112678,-0.0028270109458533683,-0.005991878861383234
636,-0.0072566512320297386,0.010798076888664064,-0.007418948197354147,0.004613154945259244
637,0.005756574883121021,-0.003922661260724628,0.013482806889685603,0.002397601476672433
638,-0.017463328834719797,0.007009421252503447,0.014874146048848028,-0.006451476146271589
639,-0.011399832185487367,0.022200538629996033,-0.0057716907133998786,0.0045715009836049605
640,-0.004281476566943101,0.019222698920413832,-0.0032996796941913067,-0.0046423331026967584
641,-0.007843601945878657,0.0015027316418730176,0.011485874239382533,0.005174474889041873
642,0.011412130748070078,-0.009944367902028331,-0.007334393027146265,-0.00021767065548086264
643,-0.006537582389947195,0.0002913792236429595,-0.012808662548769938,0.0009196910719957876
644,0.0012270640243411293,-0.0004000552378843848,0.014924703768922163,0.010591244590387081
645,-0.0017286244871334484,0.00745625944118292,-0.006702031498374667,-0.007548983831287044
646,-0.0007120717773011657,0.008814511751865683,0.008592570760627005,0.016435440589404708
647,0.01763001698253194,0.02001259207717789,-0.007317082149230421,0.003934473585134902
648,-0.009469965184284059,0.010390704611050067,-0.016309768405297836,-0.006766388497091124
649,0.00363972771576139,-0.012230181554136235,0.002622884998496213,-0.011705590734667913
650,-0.013706164178502235,0.00497484944582591,0.01300702751906237,-0.005416094860055036
651,-0.015967020160558707,-0.005042937876030523,-0.002712383882727164,0.018949454025123963
652,0.007120722052796073,0.0044225292550363485,-0.0036847276911118085,0.0031209727489697105
653,0.001437186233693994,0.009865243887079067,0.001885246976316136,-0.008895528264151515
654,-0.014706786495658116,0.005231570782645627,-0.018324345707562684,-0.012530162268874009
655,-0.024940539786932718,-0.011809051178418307,-0.025015239463698144,0.011396119829857563
656,-0.015911596225100414,0.00422277317215007,0.0002515036347055531,-0.00595904411972833
657,-0.008887834426398662,0.014910864476381179,0.0134519745758131,-0.015950164222049108
658,-0.0015880794835907174,-0.0020652641702281578,-0.000560131885574228,-7.63026931729867e-06
659,-0.027539965301389416,-0.0013511876893322991,0.0015069092481511761,0.013989472502025932
660,0.002764116774938547,-0.004484883691054776,0.005378285232911692,0.0034939944057402117
661,0.010218133738859205,0.00019293178148235474,-0.006041504053259105,0.004004022581457441
662,-0.012218647331746003,0.007801186720321471,-0.0016949914490186763,0.015630890853317474
663,0.006399277156963542,0.0223689566943576,-0.005907272742462884,0.004689309228685264
664,0.011351062167241787,0.007847998372623923,0.003627679358344715,0.010129621752988845
665,0.005246130956997527,-0.0038322935041915124,-0.020279775478358773,-0.01718200886983851
666,-0.007888636420569205,0.003359660810124199,0.011303454841899898,0.0074677330700756855
667,0.015243392304682385,-0.008393213621956915,-0.011344674672317973,0.00022846862448484668
668,-0.001042569731092734,0.013546387934892481,0.0015966027425136555,0.0018676351580571066
669,0.00015023196384352105,0.0007264065177366879,-0.005265195405954024,-0.0017196811610176983
670,-0.0009348127500488991,-0.01688782556369852,0.0015380770638939328,0.0007271333106406017
671,-0.0014579964436092,0.0006286185862515132,0.011401276105842288,-0.013887789197839876
672,-0.01243812195368573,-0.0039522156135301315,0.0069416977385581054,0.006066608326634012
673,-0.017144548129824366,0.012750652258679737,0.0002821202773097371,-0.006628866455807917
674,-0.004524253377855869,0.0028553006029612216,0.024031838562343956,-0.00984098841757355
675,-0.002165258979520376,0.025388745330422256,0.007773780711088245,0.02409482845269333
676,0.008208573595828293,-0.006596025835079256,0.015117238857260514,-0.013042657471679193
677,0.005879399699729451,-0.0005008141701547411,0.001812010707453335,-0.001155429953273022
678,0.00586763750277122,0.0027487941737458273,-0.005214155907643753,-0.005312178625958996
679,-0.005026476050076654,0.0051475681916713185,0.001522976991539781,0.016439220323833492
680,-0.0011281436693879202,0.003311150552708325,0.011866126285703755,0.0030373614250331065
681,0.0015040878719334973,0.009691696176596811,-0.014689101718198766,-0.005233887245304255
682,0.004835740094784755,-0.009851089336700038,0.0059733114415632255,-0.0038616442712390516
683,0.00932644489863455,0.0111994209789266,-0.005610958348049603,-0.0051848355373970015
684,1.2655760091194344e-05,-0.008121902232699499,0.02283772076832153,0.0032853171015798576
685,-0.0097043809488536,0.0005986688915341116,-0.0075343662704670114,-0.020459376497942945
686,-0.01191063478521267,0.010228261055316861,-0.005977751115791136,8.96133074192885e-05
687,-0.00449037501027109,-0.006769551100136861,-0.013851702199666121,-0.004575646421341158
688,0.00043980234284520274,-0.0031292749080018773,-0.027327870790724205,-0.0006322404398382481
689,-0.00690432534373875,0.008784174157982707,-0.002685269954533389,0.0025597978186359233
690,0.006426941213050857,-0.011350715432302028,-0.015984270893956442,-0.0029113635692057196
691,0.008721906814371717,0.0005711062954901397,-0.012200446953477127,0.005828733831744245
692,-0.0056710569793929555,-0.022188026958629304,-0.013449755254842268,-0.0053107118054892205
693,0.002601381022040626,0.005506860182730829,0.007845120695343129,-0.005396183031011062
694,-0.007644204607027105,0.0034474157116761092,-0.01532167060668953,0.022227452480328792
695,-0.007534683767023781,-0.00460470658876767,0.0012223368037576551,0.003884367429747798
696,-0.007988664952887727,-0.01311139682074115,0.001843662623190591,-0.0009907661066180145
697,-0.00841873415484397,0.007069788904672712,-0.003765596523504254,0.006333309836546389
698,0.021982738174724764,0.008967808781499451,0.0030543312239878,0.006252442269588316
699,0.015438204142155592,0.0193722008968122,-0.006225794955955796,-0.005399173170320865
700,0.01091924622850529,0.003883323189682139,-0.013212000058737799,-0.010503857506282641
701,0.012258448715997452,-0.0017879010698573865,0.005885556351079171,-0.006261782291252071
702,0.012046081439992992,-0.010254790329176545,-0.012474753892031095,-0.014551531650904113
703,-0.0012854409014078484,-0.0008412170992068354,-0.0035989004809504157,-0.0003245046598114354
704,-0.012695673175331016,0.010704691223996747,0.008882675045673204,0.004342541378139275
705,-0.015229340249373039,0.01801996889650371,-0.0002767517921875185,0.0036302068793079103
706,-0.027581533493500093,-0.008269662031439152,-0.0024340555731052374,-0.002049232999206983
707,0.01283863550045976,-0.007647746059649186,-0.017824178801295568,0.019129716233400686
708,-0.007632525777388279,0.027004554296577384,-0.0006459783034349257,0.0075363019743215
709,-0.020250594739959292,0.004117344030528653,0.0068379538675377525,0.004990178242481546
710,-0.0056354203040399195,0.009350934755698873,0.0017743448088741013,-0.005427960007504771
711,-0.002494458765168855,-0.00896905489203454,-0.003292091618754773,-0.017514099167510157
712,0.00830481059378821,-0.015116205267009223,-0.009272374021729238,0.0013150784980573
713,-0.004173990292381466,0.0017218708633809096,0.016660381488149068,-0.012845913906673735
714,-0.0069917590213306085,0.0006134826235115696,-0.002655248006996752,-0.0043207611665071685
715,-0.01863294503319119,-0.0028557626073293955,-0.000995966259519751,-0.012362859811905583
716,0.006064781960240773,0.006763523938320939,0.00844460061547626,0.003062546367230017
717,0.010832076801133456,-0.0010324310255148124,-0.025459717936206275,-0.002518308925735431
718,0.009189903760482425,-0.001149295100971719,0.0013846334021527765,0.006664110587811009
719,-0.003631184338870287,0.02612201070600609,-0.016081230059476172,-6.400138599207348e-05
720,-0.012445545151173637,0.005288863783935806,0.0061093010183615355,0.016250958153420945
721,-0.0010276401929186904,0.0039058571158767817,0.004822204778952053,-0.02202308055486691
722,0.0066202174554921825,0.011074070541567525,-0.014963437278064767,0.002863495085431346
723,0.01919667033167945,-0.0009996753861798594,0.010088989841491435,-0.002971274025484056
724,0.0020079144972589384,8.429699506917667e-05,-0.0007612049117064633,0.013287609063376666
725,0.004225855340184335,0.011341119496349833,0.013316887105494512,0.005347282647660678
726,0.0035304411917148233,-0.00894089747919851,-0.00532402123357889,-0.004586199661574505
727,0.014610188844354386,0.012336927907112341,0.01674816500942867,-0.004519016965125378
728,-0.005652269133872116,-0.005740630845071399,0.006234970732503157,0.002246058967401545
729,-0.005632285654152859,-0.010109324123155197,-0.007136257049262506,-0.006241141131424985
730,-0.0008166080538781686,0.015115167280336675,-0.00014846814091887766,0.008928162486425134
731,0.0112903204386421,0.013187249855855794,0.010386894858239078,-0.0011243769090700502
732,-0.003092075323272308,0.0015866385514745642,0.02115328488017734,0.006443226537005538
733,0.01847374283891122,0.01732149010717848,0.00509921414883071,-0.00423282316492109
734,-0.008089872259366995,-0.0030081178647675547,0.006425624088881446,0.0006438585405781544
735,0.003677830882770518,0.01692345575517789,0.01306983519806293,-0.0009079836480973902
736,-0.017391298493350842,-0.005508504922946397,-0.004505274568130435,0.002377635147033718
737,-0.0010923308083431245,0.009547413725337992,-0.01811229751326493,-0.007386444009887755
738,0.0068207119949396395,0.0007447604642678129,-0.014225624713334876,0.01583901459940937
739,-0.0024937471421435852,0.006567102573767607,0.008344035030029293,0.025077694811075028
740,-0.004553087088060234,0.0025471640457355844,-0.004342257242575267,-0.010588982148168197
741,-0.0010991790664656997,-0.016784384417523848,0.012000039847085753,-0.005990216868564431
742,0.01134518786842821,-0.019381265540784863,-0.0036753131563521057,0.02797310060430347
743,-0.010088552667853986,0.0006120569652652485,0.022519048393779478,-0.011659356163189003
744,-0.012753672855482817,0.009508392333699416,0.0021796721044627493,-0.006322784143033015
745,0.0017788820189268604,-0.01941788097914413,-0.024601503723700326,-0.005875233751430725
746,-0.0009970365863327581,0.009365046505358455,-0.007223970333103699,0.011222676699715287
747,-0.0038687404022835787,-0.00047023640828507655,-0.004951130814850082,0.023189294007805818
748,-0.0063882843863623485,0.012214162415245877,0.00901815805558226,-0.015889307375599647
749,-0.00908943077278671,0.0037617870923914052,-0.004962403990155103,0.003147361261513673
750,0.004830467754825383,-0.0022177648059186275,-0.006248924721968655,0.0046974903560830766
751,-0.0016790035891587247,-0.000752238596611679,0.0033612759818626207,-0.011564343825301726
752,0.017844059102635923,0.00549921893039298,0.0038763022466879633,0.01575659778044598
753,0.0004194094604058754,0.0005462223187094533,0.009954995063005656,0.0023577871676484204
754,-0.01905618207843078,-0.007852709953925336,-0.009155599215213505,0.0015510678814674285
755,-0.002391806494876615,-0.010843235782859685,-0.010418718135119433,-0.016627947246444647
756,0.005401122481394114,0.011205891341317074,-2.6227759753360323e-05,-0.012839448475135079
757,-0.01225009760397421,0.0038722350203251937,0.018450253972046433,0.018209036538720882
758,-0.010928396231530179,0.0030037460817541935,-0.0050768747453629895,-0.01361514182599517
759,-0.01425602958150148,0.006467500438033668,-0.002186701334591366,0.012119486542654408
760,-0.0004387527371860886,0.0003750135879661694,-0.004777842544461651,-0.007469855265944523
761,0.018721154823118497,0.01657042970945103,-0.00857841418698543,-0.019635716485049783
762,0.01673355769205807,-0.00039593305164169077,0.004125787652434947,0.007122692568079796
763,0.02120265349212304,0.004278163618577538,-0.008355821859978517,-0.004748564592052339
764,0.007576155267326782,0.012422152446896564,-0.007252543803500281,0.006518398050059319
765,0.0028669454085117905,0.013047018914563478,0.014589234078264544,0.01287628524528415
766,-0.006939512353042232,-0.001352137186642369,-0.00508815576781536,-0.012077057933380661
767,-0.003594932507823735,0.01853407242472141,0.0010839273481852664,-0.0059029073831536015
768,-0.011513027751636021,-0.020698834203123278,-0.011390715266272946,0.01044988718776584
769,-0.010134297755940989,-0.004405592755739651,0.005601606064912077,-0.012985728242542202
770,-0.0001153195195775447,-0.00284588854965061,-0.005948603059791437,-0.00276817013783178
771,0.012598228991325741,-0.011895888262534656,0.00919502693782158,0.011646751471808556
772,0.003681761426384782,0.0027455211248568444,0.004882101147230689,0.01093695185512396
773,0.011358799463453724,-0.006973964617558327,-0.018535691705205175,0.007196090619498287
774,0.002869694783352374,0.011936527438966794,0.006194250483403619,0.010744595015959401
775,-0.006977238187505783,0.004534212778094885,0.011225477657179336,0.0013317051072084948
776,0.014993378131579216,0.0001919465343982574,0.021515744283233683,-0.007319295458238014
777,0.01238872245029961,0.029836876410637838,0.016007545770813897,0.000520638282445034
778,0.006727206075085771,-0.01051908433231417,-0.00047060272767363,-0.003386701381314353
779,-0.00364434724988736,0.01730643823816359,0.0050346696822017156,0.007639884580977067
780,0.007860389120574558,-0.011064521992852079,0.005570776188930425,0.0016258374164247378
781,-0.014829526476408237,-0.009317440819535125,-0.0002167550903848557,-0.0034562500669922083
782,0.0017186961414288964,0.00974897120043138,0.003632670034978293,0.011135726815633145
783,-0.008481094207130198,0.009510302700447344,-0.007988976188371499,-0.009347950468953809
784,0.0032337187643650305,-0.005520584458575557,0.003841220136160705,0.0018311736703416658
785,-0.01445631433206863,-0.0017259862069827535,0.004344161554825075,-0.002621929329738718
786,0.013011001809185201,-0.027625993251248985,0.013417181613137994,0.0013463078166038665
787,0.0009145094306415244,-0.004443460027791823,-0.010164699719023536,0.00024256450954076485
788,-0.0015026702442027954,0.005368254685382267,-0.010557422319364905,0.007687825418554588
789,0.002574941149446554,0.004004681199997605,0.008986644705994395,-0.004810358175699037
790,-0.0003348853020000089,0.006174634993365289,-0.008695830379963831,0.007517999281104802
791,-0.02453947360927815,0.010912159826894429,-0.0031056726837926318,-0.013947324172762612
792,0.01615266468784379,-0.009101988624865718,0.004279621654416469,-0.0007006034020359615
793,-0.015520710486669068,-0.007059855627337641,0.012724535586314865,-0.00500574089290524
794,-0.03145780912884862,-0.005556119962634885,0.0030106119101034738,0.0051871199716990194
795,-0.012530042480302594,0.029662088075710375,-0.017315478071209457,-0.007984434232695807
796,0.0028933865186432954,0.014038272980445196,-0.0016306922387093888,-0.0067244044555283275
797,-0.0162646426926555,0.0010194036251274716,0.0011218671378883935,-0.010332878957048826
798,-0.0029348977585052245,0.004544076271452016,0.0035742781095065702,-0.0019895419751063867
799,0.015185129899667476,-0.006346810439326761,-0.007899045240022246,0.014531792903292188
800,-0.002780457458758169,0.0008051721003004409,-0.012732006363967086,-0.006311014128319684
801,0.0048816131173716314,-0.0059355568896247305,0.01086860960959679,-0.002326882138469853
802,-0.006502859711134973,-0.020698633152448388,-0.018994474819085266,-0.008831717393026158
803,0.012003660333699874,-0.011765957623968442,0.011728443445942729,-0.010704128729029592
804,-0.00013893476800955947,-0.012110114646100763,0.009539161011646998,-0.006964613687590223
805,-0.0036085459472476877,-0.01415664325329044,0.0035225265532662516,0.016681897543986565
806,-0.005611321842398443,0.0065689770080923065,0.006252588271045966,0.01756353405143241
807,-0.01804798897423839,0.005776659238884731,0.006047913494446854,0.01902756206544724
808,-0.0008831429634730897,0.010182239655869518,-0.00465899241461512,-0.0035339388418997105
809,-0.0009553030476165523,-0.003519594714047839,0.012289293575080542,0.008550821373282497
810,0.012793014474492144,0.022048561713628744,-0.0024669662614125276,0.0036909058396409028
811,0.0035506257582421027,0.026014168755595226,0.008719356795228648,0.019203640677201556
812,-0.004286435291487708,0.005875791291910744,-0.009024036489219149,-0.002711865203888725
813,0.008742886450452705,-0.02212431806535773,-0.01751496942817914,-0.0014116512675784443
814,-0.005457396555397685,0.003485340103966752,-0.015899813273769013,-0.01416396817474897
815,-0.004665352690549899,0.0074545741542598205,0.0019570989779080466,0.01609909072585162
816,0.01241405069445248,-0.0011745838049216563,0.0007659537688066741,0.0003655818857204138
817,-0.0013588658535100863,0.006858687795900591,-0.00839968891347986,-0.0005018824030543385
818,-0.0007614314714993691,0.002726869477438971,-0.0008246648049025929,-0.008895462427227161
819,0.007067396029873566,0.0011227236721996965,-0.0010646483694967763,-0.00031748977065393553
820,-0.018293697147171023,-0.00788866113206257,0.01107036326052086,-0.014139568941152576
821,0.012228102014484784,0.00714173086476246,0.0006632136401420807,-0.005258009464792861
822,0.006439936534987417,-0.0036589671761529134,-0.01650049505529241,0.011169178888863306
823,0.0074370570436818224,0.006189056483841297,-0.008517511679077595,-0.006936798608342207
824,-0.003561890739690041,0.0015776193054028414,-0.004904794306181022,-0.01047386000756661
825,-0.009333257899979889,0.0003449437364493547,-0.012735698685500698,0.011140551015443896
826,-0.004874038497307936,-0.007322120114840841,-0.008130883830787264,-0.013680594816843786
827,-0.009934143190971608,0.006306555982368785,-0.005311148780008255,-0.004331363383824099
828,0.0007645601543887153,0.023800672829578855,0.008178382786819191,0.003955011528196054
829,-0.007394576885346739,-0.005832363033646107,0.018515613571671728,-0.0028834310000012044
830,-0.010951404783444208,0.005173271861863577,-0.009986323067602356,0.002640985735377352
831,0.011177568949567842,0.014147691542890284,0.00891104804237337,-0.011991007340547815
832,0.0026930938762251555,0.007900831036496482,0.005825879627946732,-0.0015520497831318855
833,-0.002232642133329289,0.0034110763133143743,-0.016188861245442897,-0.001826526412815609
834,0.010966164316617006,-0.00841287774238307,-0.011078530793630094,-0.002986584797447932
835,0.01974120944733863,0.0032116752294804526,0.0023916335249039556,-0.0036731679500345404
836,0.0022512750976290304,-0.0062178420780511865,-0.006845606151232069,0.0060165784415491174
837,0.014212634177868015,0.0013145608747992315,0.0068010700667715095,-0.0007531272605238992
838,-0.007258929176827941,0.01080928303205915,0.007748673953954549,-0.0065652519030001515
839,-0.001461233182326643,-0.007066072104053204,0.0028767919863746413,-0.007391530273335239
840,-0.0070534481147281405,0.005478719132662493,0.00039031806130616377,0.003526040415347346
841,0.011022681039571994,0.0003687325532023066,0.008897221085153778,0.006024115127662657
842,-0.0065471062811416104,0.006412501071989579,-0.006833131332566224,0.022184452372455022
843,0.006320571195809895,-0.00042454343491050067,-0.0013998141104890757,-0.008951765977684973
844,0.003176150846053087,0.006658945954359949,-0.022738780703319198,0.001545328539424922
845,0.00437765311080525,0.02450174266939515,0.016357277683515564,0.005337500573290479
846,-0.004728426733364018,0.005270320393145791,0.011499481043432317,0.0020660707072471494
847,0.015335746023303776,-0.0018579937741813372,0.007963374468870674,0.008107059821861749
848,-0.0054645646836096835,0.004382532491942801,0.007412911979705083,0.0028225398181562023
849,0.01055291264552728,0.009313746648294782,0.005674616503715373,0.0065201522901837845
850,-0.01254587558214257,0.0023555400340959467,0.01313396525209804,-0.014197087797678495
851,0.016357499624453042,0.0039115484061242834,-0.00023044486847132259,-0.0018489116880138683
852,-0.00369516595364929,0.0012040994607918872,0.01861998529658848,0.009091318184653101
853,0.0020154349009533466,0.018184878474495982,-0.004551673808271421,-0.0017553808325245985
854,-0.008122952166838227,-0.0027305623162806247,-0.009526107613345674,0.018879635914965397
855,-0.008092256717429138,0.00877451921008464,0.0014551458449257437,0.0065475187024926435
856,-0.009937818246417367,-0.006280905716377947,0.016478819414675962,0.0037393636306381974
857,0.004158423702678423,-0.0069401636827840524,-0.009130113376162001,0.010665863115601823
858,0.009264090263753267,-0.0019348591470981962,0.004715863872408595,-0.007229731983852431
859,-0.003984800510022656,0.008886637570150879,-0.005130429326124843,-0.0018508474714294385
860,0.007655460976680623,0.0056234811539183326,-0.016410500075808267,-0.012820880971623363
861,0.005782696205809015,-0.011464906800571611,0.009702542497440911,0.0027257470646941417
862,0.02201382723303919,-0.0010386956973319744,0.0018855791532544507,-0.0023923551981473966
863,-0.018043858399828652,0.001020112011865997,-0.00406106240789463,0.0081257636457772
864,-0.014838978643839602,-0.008677344065357294,-0.0020194070637071914,-0.008497212233591747
865,-0.005751501568072436,0.009602702678003023,-0.01117429019612281,0.01090079864260648
866,-0.01197648346843898,0.008890480581677945,-0.006929904893951516,-0.017815930626640195
867,0.004043723901558603,-0.008092942996883358,0.0062849341882276685,0.01002528279783716
868,0.01766574375693267,0.0063206173112257975,-0.01633004362852379,0.009503020439555478
869,-0.0004800781669390296,0.006510624282324712,0.0033820388306355737,0.004034079889519685
870,-0.002475638736856465,0.006631877592527116,0.020956416539276886,-0.0016135522367671442
871,0.004018597163129466,-0.011204961204361291,0.01403292468244088,-0.0049449116462745085
872,0.002497929357147431,-0.0063603668023855114,-0.008177395834564213,0.0016161750271783942
873,0.00706239043049382,-0.012706375911355039,-0.006317200490333809,0.002844459730550092
874,0.005729382868798884,-0.026635882800796238,0.01437993744684196,-0.017407034315946337
875,-0.015477774315644592,-0.006376298168336179,0.0006957285760643595,-0.009869222512870165
876,0.0059254199018318595,0.01458253894285205,-0.004459554457142663,-0.011311713688375849
877,-0.002076578205358671,-0.003948841390495892,-0.003632394600417858,-0.0008138597799078548
878,0.004188249730143497,-0.003177314682879023,0.0011366019925853096,0.01092119872537175
879,0.012148619804545848,0.01785984789023509,0.020965940622818893,-0.0027235926300867136
880,-0.0030830284072301045,0.0120110398001647,-0.016291779605463127,0.004444729510335438
881,0.005750222953343578,0.0007268758590375712,-0.01238471544402067,0.013130900575018195
882,-0.004113896986129388,0.007600447072985659,0.011548086183286302,-0.006722906395164687
883,0.002511521306503008,-0.007431077924568317,0.006401394392560485,0.0030626762806478507
884,-0.0035222187588161763,-0.00022566974929001202,0.006995739172537513,-0.0019582745223071366
885,0.0005855373958514252,-0.00810934989933251,-0.017563924776656102,0.009301442220220347
886,-0.026157976758178946,0.02203188942547694,0.008431672998423009,-0.02977527366806125
887,0.0030232045534044245,0.0013764174197916238,0.016859594440353072,0.0017100087389999492
888,-0.001263140841611777,-0.007452053584255165,0.008966828249545313,-0.0038412224759708916
889,-0.004803133225224604,0.0022060865908673636,-0.005370214300761023,-0.015495912491732652
890,0.0002351169928902182,-0.006201430900790913,0.003662165855676347,-0.0015427911806534067
891,-0.0005262493061611138,-0.0059920126110678245,-0.003453055052093122,0.0074786038352245045
892,-0.01143450587833022,0.009293690851195281,0.0169150985253328,0.01746275420850664
893,-0.009982975042667678,0.009267423521003088,0.0036572168653677727,0.0007194450188621359
894,-0.0026423998889986847,-0.0036032587921544525,0.01332739445520494,0.017824681221473286
895,0.010063335492990625,-0.004515377626216014,-0.01390695524928515,0.01152926663478907
896,0.006980924934894402,-0.003492965334109312,0.003382979292428855,-0.007257816300702065
897,-0.0039773174313518615,0.011030527621023535,-0.009845794165696297,0.005627761812121139
898,-0.010505726113750266,-0.0031086044766686924,0.002221870879421646,-0.0077371352396830035
899,0.0045368118836709315,-0.0016841909974627215,-0.0037408452993809367,0.003107584755453207
900,0.00966095710937711,0.01696893409114649,-0.005832455065399774,0.003131314567841321
901,-0.008663729797730271,-0.020477818013770938,-0.0018037272186256768,-0.011076904386674006
902,0.006165043430405133,-0.00518796175794509,0.02180312715915686,-0.009065617464151689
903,-0.010643138058621557,0.00240669498990311,0.001699906696837434,-0.004149529952258441
904,0.004811780938148317,0.01315051088580059,-0.0076051572162172745,0.003610017879048135
905,-0.004037414850010953,0.007052864842233107,-0.009571164583335573,-0.003955290839694418
906,-0.013868328566225175,0.018881558562187793,0.010188422164199894,0.004807553121611658
907,0.006374135849004326,-0.0061894524491658155,0.015427082074986513,-0.000989535560680286
908,-0.017112033214782336,-0.007358119046952132,0.00026497636875388446,0.007890271174561156
909,0.0032909761179403434,0.0046540070209438265,-1.1966253143581455e-05,0.010929974131144276
910,0.013995746738272068,-0.00873066989355956,-0.012371190162777703,-0.012729789528965843
911,-0.0011023938734926778,0.00875174851975239,0.004102956350608644,0.01580705210547941
912,-0.005808496496018309,0.008875097613090367,-0.01883344777886736,0.017044013533904525
913,-0.011795836530316189,0.025010453507215608,0.012211996644544969,-0.013235590027293158
914,-0.008710669575893944,0.01233504319019815,-0.003480674082755109,0.0011381686017679624
915,-0.0021016164439614606,0.0190435982329809,-0.017063705592420472,0.01123826807846902
916,0.012764803282529488,0.002345760471021901,0.001262299181512583,0.0005039309669208136
917,-0.00412969125761871,0.007596403550261304,-0.015249970929071972,-0.005614381434291538
918,0.007123432298924677,0.011669059707137223,0.0027058834368387584,0.007000800456004818
919,0.0010234896708580432,-0.022370507758764775,0.010825430822406478,-0.006786231374812906
920,-0.0029674973904337187,-0.003232600037628904,0.00013445444229105423,0.0010741943886614647
921,-0.019821728000923296,0.0016175978667026046,0.003543096462357446,0.016274589189517043
922,-0.010346046578753638,0.001818490063842737,0.012397118450419919,0.003591960131255976
923,-0.0027705237823536246,0.0005109244570316076,-0.020852892302616974,0.00729912091944968
924,0.015551223656374041,0.02465066571850758,-0.007164138950737852,0.01325969126328892
925,-0.012393369006210459,0.02086865692611233,-0.02256293881824762,-0.01484351405278434
926,-0.015089137049763156,0.004647737343249854,-0.013274948043281469,-0.005827681266485802
927,-0.00376650411411066,-0.014639222753345064,0.01669630342509349,-0.005356614190260719
928,-0.010441232924877785,0.00023107978435404415,-0.00362516758037877,-0.00980834169009596
929,0.0025307682388757942,-0.008266643761577775,0.006181306038149324,0.004947567577596717
930,0.007172418279382491,0.0019755608285993657,0.0027755814582460406,-0.005875310792276468
931,-0.0002768838256852075,-0.008602678461888731,-0.006213012962239542,0.01941581001833911
932,-0.007725589335901677,0.01426281867409306,-0.020875797903153446,-0.011980500843527456
933,-0.006582698997756092,-0.0009196225023219073,-0.014735672327996236,0.003848716557330887
934,-0.009381637939624795,-0.0026906995669253916,-0.0012992237632403502,0.0096519827635405
935,-0.00718238384928,0.015319189523344455,0.003175481076294358,-0.0051523231740606525
936,-0.008164295762445265,0.014639622347633411,-0.010532843557926747,0.006596044293379346
937,-0.00760651142451576,-0.0010721060177987167,-0.006069172759287818,-0.007326958336939014
938,0.011914758431681815,0.012507426715632501,-0.009099580147982799,-0.0008061887914310735
939,-0.009121602530783925,0.006416600036474847,-0.000515564355752863,0.008514382412070276
940,0.0034817261476936257,0.013241605478804559,0.008810242817008911,-0.00032551170272544186
941,0.0010625092518737915,0.010090081893373891,-0.00016650214814961786,0.0008529148019973723
942,-0.008320572276911332,0.014563104266673814,-0.002964076714542823,-0.0012423062043479688
943,0.010504984435140896,0.008935200304103929,0.0020982318200257143,0.0028172058699103097
944,-0.0026855375882952085,0.007429226854097191,0.0058383884323849255,-0.018451103875390517
945,0.0096494113732022,0.021927700690160076,-0.00317762704351095,0.009063310224241788
946,-0.0026465974632796548,0.0002373481857745029,0.006361443071666275,0.011043407812261404
947,-0.009366191249829242,-0.01228154724213867,-0.00662928350671639,0.006610322704240625
948,0.0073740523834542595,-0.01728606414258944,0.005785619776398933,-0.0006469583296130137
949,0.004518525652399322,0.0037910607759607806,0.009227731466363099,-0.005973048338527844
950,0.014523141290545192,0.003716803509098773,0.01727510295227979,-0.002384113225468905
951,-0.006076664411872054,0.003703604779427219,0.00017563210098385846,0.009091281238339159
952,-0.0029352436277436883,0.0068475556315049126,0.009040285170350094,0.010684361035005101
953,0.006617645130886459,0.0008002991771197058,0.006450352334788838,0.007021397502624346
954,-0.0013315533652526784,-0.0027685487018826375,0.011263596256129918,0.009078526764760793
955,-0.0061013158283709495,-0.004498100190768386,-0.003873094635891951,-0.009577566876417403
956,-0.009141188150369675,0.00011406235864458337,0.00861035221448484,0.01024609477479139
957,-0.019420684151259363,-0.004948112795580394,-0.005941643242816207,0.011019705523176717
958,-0.0023723607918222107,-0.006522114416151771,0.002822501216739321,-0.0038134831051668456
959,-0.019092088340411838,0.001389501858686051,-0.0011008552374292993,-0.012978937060720426
960,0.003274975958969093,0.003148162526907039,-0.007138402317851869,-0.009187423289375928
961,0.0183267733290644,0.012138324563670692,-0.00048793688426031147,0.005494163386114578
962,0.00692559086525055,-0.0040639117887815,0.00407693109345182,0.008153519012509809
963,-0.0006684123950789448,0.0011683925460557868,0.00725675286582321,0.007803526088354512
964,0.00294219136269452,-0.006968146604771569,-0.007840308137654064,-0.011615212542826651
965,-0.0007911818711990584,-0.01836782404882226,-0.003938833037212567,0.009210065685972185
966,0.0022365714583435854,-0.006008572927756002,-0.010941721007680073,-0.009267252910299454
967,-0.019374845169911534,0.005632171613168324,6.374628729527619e-05,0.009025924685122227
968,-0.006850729773793758,0.00861822132961252,-0.011131673851379972,0.002330638526106071
969,4.2479538914093524e-05,0.0035546211170879483,-0.014868947195719186,0.01064546088535657
970,-0.012213282766055837,0.005756609195517817,0.004212541029122759,0.0032375328064375756
971,0.00366345344640091,0.012912612144963982,-0.006439607091547847,-0.013345348415620018
972,0.006439779013337808,-0.003759844002955859,-0.00433067329135542,0.0017366214766234385
973,0.000474806853677731,0.002496689840676189,0.010952895767510478,0.0005600384180518404
974,-0.004334855636659763,0.0016630838544561338,0.0069319688038757725,0.006317207465099338
975,-0.0035212763108289987,-0.00805658059501832,-0.008593681990682151,-0.004440068840901034
976,-0.006956422054027853,-0.006473113720710384,-0.012341620015751996,0.009582196647430296
977,-0.007712361898756105,-0.013796303246467786,-0.0002698593530944422,0.014889393281335296
978,0.013795489785753139,0.003949258434319348,-0.00708000577482896,0.017743703915187
979,-0.010441323285773327,0.004890305972351712,-0.010807398533314546,0.0002741214760692703
980,-0.004849482574854586,-0.005214623857327669,-0.0072670083098187385,-0.015908308086761178
981,0.01382234214938279,0.0006641768198392767,-0.011622472444276626,-0.01117754786195222
982,-0.02587041214946533,0.006985127185828909,0.0031015698199707417,0.009992950452030474
983,-1.6044446014049337e-05,0.01192895273081177,0.014237509089261658,-0.003018191621830255
984,-0.015815849519963322,-0.003834562205155586,-0.008701634691080444,-0.003749195381186964
985,0.007400457928512536,0.012213849234463493,0.002361898825440954,2.8828270419208387e-05
986,0.004780314464716213,-0.0023022820530185758,-0.012565816820442856,-0.012778186788106818
987,0.0018148862609970698,0.02221611941476039,0.0029467410574987077,-0.004012542970496551
988,-0.01138568199054094,-0.0028432917279673257,-0.003930218463337635,0.009479456485435746
989,0.00173708172360502,-0.0013271995622599422,0.008337404441626397,0.012233079730087837
990,0.015596158140404588,0.00392906607035737,-0.015826821494701094,-0.0037959994824731504
991,-0.0061283146583124394,-0.0031242188872027685,-0.01243830692194792,0.0012494762541304038
992,-0.006279723853374862,-0.0008244362756998773,-0.008413737012515023,-0.0030057922659621258
993,-0.009980594983842976,-0.0007926155523773487,0.003021087129045162,-0.010931706737414558
994,-0.00815770826025198,0.009758257572494352,0.021931377875571485,-0.001224051535684473
995,0.00031242878254213353,-0.002257101311493837,-0.0016494658684278055,-0.0011208805314493523
996,-0.0023915018381563367,0.006260463569907702,-0.0054044191441023366,-0.0010549152834924773
997,0.0013709059748870398,0.007771952161467092,0.004275425362586785,0.006729280975606385
998,0.009191144909546757,0.007162759956144522,-0.008427928801028686,-0.009817187919098613
999,-0.013862799846367421,0.011098844545460985,-0.0056202901071677564,-0.02301469249047217
1000,0.0003031702463461248,0.005184795055372281,-0.012653245129444057,0.014664608032914953
1001,-0.012636820378620744,-0.0132191459651867,-0.0019512150133908779,0.01360204151612414
1002,0.004173504746589284,-0.002223625834162409,0.018900106375416566,-0.02351710270685424
1003,-0.001183889362771273,0.0016229819386503308,-0.014035153613385193,-0.01535561703013741
1004,-0.010916285260413236,-0.007776116948198144,0.015300746389880084,-0.00018782145776170028
1005,0.0005145908750724192,0.008046864347753774,0.012754048630101286,-0.01205377412342702
1006,0.0021853124057505053,0.01745844931838238,0.008243755320666069,-0.008451294972277633
1007,-0.0019587043096665675,-0.008196670222854502,0.005795553867034069,-0.0035119066304880966
1008,0.003378796156392483,0.016281876291885954,-0.011046724242271213,0.012325896428623235
1009,0.01687378825841896,0.004733250719191274,-0.0016248998311200154,0.0019931043637205995
1010,-0.006053905554625252,0.005057925550353011,-0.0023385671546489323,-0.014668454107090802
1011,-0.013937097025920131,0.010882262032246733,-0.0025568446031248456,-0.0015144170678297309
1012,-0.005922429338817731,-0.0030197502299925067,0.0004251795564173592,-0.021813200038624872
1013,0.004146020919721718,0.005003758949442639,-0.020495032280106795,-0.007365042168016841
1014,-0.01855117217103978,0.003494181233534388,-0.00010755327296599562,0.018030528934732826
1015,-0.008549497668011708,0.0017728853450298893,-0.015135825223616884,-0.011432564696512005
1016,-0.014286527041660441,-0.01643385367397515,0.013662137281262433,-0.010981233318641986
1017,-0.0013305072543235103,0.012519940068117323,0.011124630795307433,0.002708826485651868
1018,0.006180175288000469,-0.012642205529236497,0.004106024527093796,-0.009059372621875528
1019,0.010271300038158194,-0.0011879092727371413,-0.020608070642900565,-0.009895703121371667
1020,-0.0022135529832266634,0.0006111893603836275,0.0031111781182388766,0.017318655329214346
1021,0.005911862686285758,0.011308821596834688,-0.0007567227910797753,0.009355649628283863
1022,-0.005074672518988011,-0.020561038261638517,-0.026283616708355387,0.0017169907942040138
1023,-0.009810254498408028,0.0006946366712806839,-0.001692929085529901,0.003998541411055723
1024,-0.011199993965458444,0.009351771926493606,0.0043164005613115725,-0.003477975935250333
1025,0.010189078020500902,-0.00616058784820203,-0.01288452578484797,-0.001607231280041024
1026,-0.014376970545300847,-0.0018895182522021773,0.01472007901843429,-0.00507579432828373
1027,0.005763838163491358,0.009303248753014484,-0.021835662828068102,0.009330881272492143
1028,-0.006990027701966658,0.009186884440492501,-0.001138163792388266,0.013841647430146622
1029,0.007270550827911619,0.0021889594181601726,0.006275267122231003,-0.005632829051006379
1030,-0.019488186547016277,-0.012470215012948833,0.012110613021091008,-0.010909282970634508
1031,-0.006258382029780872,0.006505288426557405,0.004814138932499053,-0.005840879664272238
1032,0.008780845826414174,-0.014669270968962866,-0.002665448618592181,-0.0076669414390442975
1033,-0.019721365178763064,-0.005743733333581721,-0.01632441182031375,-0.0031444284345965028
1034,0.018994389310435494,0.00875102002705117,-0.004443147703060061,0.0038384423968927488
1035,-0.0002360258040670708,0.007060631273207372,0.00477109634235304,0.002458887289223347
1036,-0.022345853245368724,-0.0009129084587027344,-0.009027075356820017,0.024779530156789117
1037,-0.006771794538362935,0.005491555079174656,0.013359628273638739,0.011827994074936675
1038,0.00283899354139097,0.010320100593242528,-0.01652817682430123,-0.0005905386383722621
1039,0.014355982306428022,0.003844200428083078,0.0028220136427993515,0.002391025590756902
1040,-0.02889737213781817,0.012591882640490493,0.0015700812433635683,0.0010313224030465396
1041,-0.006288298515753369,-0.0011919482256668092,0.0035188930019016992,0.00708497892443818
1042,0.006321360031022151,-0.012669809846502301,-0.0017901183871293419,0.004821104672214595
1043,-0.005427945658032175,-0.0045737613930717114,0.0017065755956153473,-0.006614736603136743
1044,0.0024108321487636064,0.01091979566321048,0.008059063747036794,0.014537046749900489
1045,-0.017970915646847024,-0.0006259852115643944,0.0005408672445026678,-0.007704487858395787
1046,-0.017483892756303052,-0.003663634198311034,-0.0026404268422361202,0.01244212561154578
1047,0.020429746541003886,-0.0027108560485311402,0.008628683931195237,-0.004109286735600449
1048,-0.0013734065885127565,-0.0037657725806650045,0.004950633323270792,0.002410329739016575
1049,-0.008828110891643181,0.0086606343588642,0.006745369202037079,-0.012409110256432146
1050,-0.012234882838853852,-0.01284839318144396,-0.019356772731838237,-0.0034044089636769263
1051,-0.004161054955429103,-0.0007377917958271661,-0.0007694003016350857,-0.01172480964522816
1052,-0.0035037025485396547,0.018058979235126085,-0.0006423524392646748,0.01399456727454341
1053,-0.002845535187395544,0.020061037060092757,0.025291489195328185,-0.005419688329206384
1054,-0.007941637406121596,-0.008221173275879979,-0.0046201403938759735,0.01451017352317408
1055,-0.0011626818110666804,0.015353623809258825,-0.005474114198421511,-0.016245715337030682
1056,-0.0012264962203873521,0.017834751933763326,-0.012454983756897837,0.0009908006994255522
1057,0.0022819723160178093,-0.0023810421226643534,-0.021804935306832557,-0.005570627459750001
1058,-0.015395894292623133,0.011150944273861459,-0.010716136412741762,-0.006287993783408657
1059,-0.016590672833966258,0.013521072497684677,0.017652238775928038,0.0038171291069187393
1060,-0.0069211849894128185,0.016931655008757058,0.009912547440663496,0.015646050837459083
1061,0.0014085387160551537,-0.0069589416207581,-0.005366562291064935,-0.01208982011615233
1062,0.00564619238307246,0.0011795855398764848,-0.0014579110325390935,-0.006463141051651416
1063,0.013161863895660821,0.000308769737692513,-0.00105745202996027,0.012781713728469755
1064,-0.00038219161849939204,0.00850742837141923,-0.008691328837167693,-0.003310687465660038
1065,-0.025008083664136305,-0.02623126338396858,-0.0031363499096021433,0.013675085268562344
1066,0.008347512884274528,0.005679271279146864,-0.01167511091689137,-0.003747509730909146
1067,0.001114745228086357,0.003851016391065246,-0.0012563690201192672,-0.008999783082163456
1068,0.000497877912937538,0.0002786704641238948,0.005280736567589496,0.00582718703652126
1069,-0.009221735096435932,-0.0188193403897523,-0.00533252826725725,-0.00614377871238283
1070,-0.03447623448957325,0.0018725751448066983,0.01681715061003195,-0.00368916254843717
1071,-0.012062822216969723,-0.0037008960104163357,-1.052059168436809e-06,0.0021057280093776795
1072,-0.015641130249443767,0.015407147668312785,-0.004531321740843088,0.0107941197927035
1073,-0.00797333133803388,-0.004871400682460907,-0.0128219437385017,-0.010587847902509764
1074,0.01188041123443741,-0.001292876141848527,0.009494422705045906,0.010100238307275784
1075,-0.0044479920932902674,-0.012058754399501728,0.0034313844360062988,0.009972273676702873
1076,0.004632128231545801,-0.004047232192084115,0.0041097017545148225,0.003090024011791446
1077,-0.004025697680845753,0.014597292786450403,-0.005486685674535314,0.0037420597342396242
1078,-0.0019606329694315666,-0.0022501268213951033,-0.00683798367543963,0.012642433741482875
1079,0.0014887864434644548,-0.013582569291770475,0.013632689619581494,-0.007055087375729125
1080,-0.015124047373715345,-0.0026540498919216822,0.0038970545697546368,0.0022222770191960882
1081,-0.015248752913701431,0.003021116847905225,-0.004756910283833119,-0.0037309425454616105
1082,0.009488494513540401,-0.0025647028981590557,-0.008867636890757903,-0.004677353140944453
1083,0.0058381996082434795,0.013810128380864003,0.0023661808113433374,0.0024075134574870712
1084,-0.0024533323119819506,0.010425469245380584,0.0029295413333689656,0.011600220590032259
1085,0.003385389740723659,-0.004073701352675999,0.005021438526711674,-0.0042642115782421785
1086,-0.006443092832009419,0.0010785110652584454,-0.010340821097836326,0.012777605268005716
1087,0.014323073978017731,-0.009777379150269183,-0.0032682536477343788,0.01951384894630717
1088,-0.009163293158188849,-0.01217607145489475,-0.00644116494872914,-0.017104769960714496
1089,0.010451002767614462,0.007654432738430742,-0.000723647303214104,0.012085196874449712
1090,-0.007861305160434144,-7.932331241347367e-05,0.011058799018175325,0.0030684521036931354
1091,0.0023331988402794514,-0.009113563878765793,0.003033603864054058,0.004417634424839944
1092,-0.008007537350192556,-0.0015773879569457201,-0.0034610615792357597,0.0006428631441592614
1093,-0.012669614449018717,0.02387536505414294,-0.008313428590352256,0.013260807316650428
1094,0.021801019575132946,0.0010334829758440701,-0.018409139709363836,0.009204587378529415
1095,-0.0015546853421932255,-0.008066460292159563,0.011160374259118314,0.00523054482830878
1096,-0.0002720635760414887,-0.005235713287064916,-0.011719783001440985,0.010363047737761756
1097,-0.007072781490190858,-0.006634811400556702,-0.0004304439556805142,-0.012778836227521703
1098,-0.004662636402636547,0.002103950953230314,0.0023023127326523662,-0.0028379825708314188
1099,-0.012309098024932913,0.009609569102284554,-4.699135099740819e-05,-0.005208948071398408
1100,0.011789260798736627,0.007772548187078806,-0.0007684772469600173,0.00744165882222326
1101,-0.0029052232797601085,-0.012563286926924088,-0.001475468342899881,0.015908172913039278
1102,-0.020261194448572887,0.004827564319636034,-0.009948646403711969,-0.0017802833578889397
1103,-0.006368850024456456,0.00809165472627448,-0.00855141319707588,0.00808279902543493
1104,0.007985991584627096,0.005734645841121473,0.018147675372577613,0.01912135522467413
1105,-0.01248773827088988,-0.0014846754682480915,-0.02594917853928219,-0.003445999401154334
